{"first_layer.weight": [[0.11112052202224731, 0.10100167989730835, -0.10393636673688889, 0.40952590107917786, -0.06383497267961502, -0.01021775882691145, 0.004931723698973656, -0.0935838520526886, -0.14255301654338837, -0.09734795242547989, -0.03133748471736908, -0.4308750331401825, 0.08656337857246399, 0.07255888730287552, 0.16559885442256927, -0.5268054008483887], [-0.10369396209716797, -0.05233684554696083, 0.1425035148859024, -0.04107869789004326, -0.043480005115270615, -0.022451912984251976, 0.06418880820274353, 0.6888626217842102, 0.07072295993566513, -0.06775233894586563, 0.023424595594406128, -0.6032127141952515, -0.06773737072944641, -0.019162829965353012, 0.09737829864025116, -0.5373659729957581], [0.11761762201786041, -0.05095211789011955, -0.06588990986347198, -0.010232435539364815, -0.06281497329473495, -0.04322458803653717, 0.12095288932323456, 0.17269432544708252, -0.05676707625389099, 0.1926058828830719, -0.13699039816856384, 0.2552357316017151, -0.029271066188812256, -0.00092651869636029, 0.015076489187777042, -0.47465774416923523], [0.07961032539606094, -0.1163521409034729, 0.12027441710233688, -0.13087661564350128, 0.03998907282948494, -0.0019268920877948403, 0.10607554018497467, -0.13384278118610382, -0.05261515453457832, -0.1016090139746666, 0.0898512676358223, -0.09089361876249313, -0.07988342642784119, -0.14980655908584595, 0.06794650852680206, 0.1560947149991989], [0.09478810429573059, 0.057566288858652115, -0.19054937362670898, 0.24405774474143982, 0.052837520837783813, 0.0018770007882267237, -0.08347075432538986, -0.01815260387957096, -0.004565175622701645, -0.06133691221475601, 0.027683554217219353, -0.13674402236938477, -0.012295998632907867, -0.1207088753581047, 0.005286816507577896, -0.46898549795150757], [-0.14664585888385773, -0.2112027257680893, -0.08280117809772491, 0.30766499042510986, 0.23286950588226318, 0.02483283542096615, 0.1986090987920761, -0.1494949460029602, 0.015168221667408943, -0.0856051817536354, -0.02383619174361229, -0.19352638721466064, 0.07110718637704849, -0.010676898993551731, 0.03020372800529003, -0.10977538675069809], [-0.09761723130941391, -0.019814571365714073, 0.14204683899879456, 0.20665833353996277, -0.051005322486162186, -0.08156690001487732, 0.04358198866248131, -0.2891218364238739, 0.21474739909172058, -0.013162110932171345, -0.17050433158874512, -0.35272738337516785, 0.05988110974431038, 0.01931227743625641, -0.0359310582280159, 0.29459458589553833], [0.03046645224094391, -0.004853381775319576, -0.04675108194351196, 0.0521806962788105, 0.15329217910766602, -0.12630504369735718, -0.02650131657719612, 0.43731632828712463, -0.09726184606552124, -0.010934462770819664, 0.09831611812114716, -0.1276286244392395, 0.030273020267486572, -0.07644735276699066, 0.04499317333102226, -0.8038603663444519], [0.13568250834941864, -0.08668933808803558, -0.12561234831809998, 0.19749470055103302, 0.08542810380458832, 0.06528227776288986, 0.022382589057087898, -0.1944289356470108, 0.00809156522154808, -0.0629248172044754, 0.043652743101119995, -0.06605810672044754, -0.12479457259178162, -0.043047357350587845, -0.07744663953781128, -0.09053272008895874], [-0.10388393700122833, 0.03127399459481239, 0.09048841893672943, -0.39138129353523254, 0.030131982639431953, 0.04411635920405388, -0.07442066818475723, 0.5535620450973511, -0.09724312275648117, 0.006151684559881687, 0.09696369618177414, 0.1771126389503479, 0.15422330796718597, -0.11278168857097626, -0.02178644761443138, -0.20065423846244812], [-0.04847129061818123, 0.15401233732700348, -0.11103934794664383, -0.08962111920118332, 0.05938663333654404, -0.048204753547906876, -0.0049451785162091255, 0.475371778011322, 0.021342316642403603, -0.04138738662004471, 0.01779692806303501, -0.8208370208740234, -0.022918662056326866, -0.010272663086652756, 0.03174683824181557, 0.286175012588501], [0.07509883493185043, -0.0070327348075807095, -0.06678542494773865, 0.010272056795656681, -0.14502765238285065, 0.03749948740005493, 0.15116213262081146, 0.4648098349571228, 0.1320134848356247, -0.04282592982053757, -0.09115521609783173, -0.5597010850906372, 0.038116198033094406, -0.08522971719503403, -0.17532064020633698, -0.3228553533554077], [0.03744448721408844, 0.021332276985049248, -0.08831958472728729, 0.04722721502184868, 0.010302038863301277, 0.0004424948710948229, -0.10617279261350632, -0.6123859286308289, 0.12046145647764206, 0.0144236134365201, -0.054202500730752945, 0.32721513509750366, 0.1467682123184204, -0.005760356318205595, 0.12738631665706635, 0.30921581387519836], [-0.03409292921423912, 0.051276031881570816, -0.017686571925878525, 0.35963594913482666, -0.021092215552926064, 0.0021047876216471195, 0.02692161314189434, -0.9451607465744019, -0.13975223898887634, 0.07335394620895386, 0.058966755867004395, 0.1844453513622284, 0.0683068111538887, 0.023228606209158897, -0.10305051505565643, 0.27274274826049805], [0.029863599687814713, -0.014764745719730854, 0.013960745185613632, 0.057984720915555954, 0.06235070154070854, -0.11093759536743164, -0.15866178274154663, 0.2226153016090393, -0.06562244892120361, -0.004624013788998127, -0.027964921668171883, -0.42244213819503784, 0.012038622051477432, 0.18904615938663483, 0.015746215358376503, -0.1271224021911621], [-0.055200085043907166, 0.045716967433691025, 0.06606882065534592, 0.17255862057209015, -0.05376463383436203, 0.07840719074010849, 0.08618588745594025, 0.025438852608203888, 0.13030356168746948, 0.15896159410476685, 0.06856653094291687, -0.6746872663497925, 0.07909680902957916, 0.07615683227777481, -0.05483327805995941, -0.5566684007644653], [0.1602136194705963, -0.12404520064592361, -0.039349839091300964, -0.07874476164579391, -0.08866292983293533, -0.11430712044239044, 0.15879684686660767, -0.343703955411911, 0.055765584111213684, -0.03652217239141464, 0.09852394461631775, 0.5184653997421265, -0.025757284834980965, 0.03980331867933273, 0.05989200249314308, 0.6585416793823242], [-0.12744970619678497, -0.18083079159259796, -0.11146079003810883, 0.20983807742595673, -0.15168073773384094, -0.07532911002635956, -0.11534887552261353, -0.12578627467155457, 0.025545796379446983, 0.10473398119211197, 0.05260525271296501, 0.19831787049770355, 0.07458492368459702, -0.057376425713300705, -0.11829780042171478, 0.33248379826545715], [0.16020777821540833, -0.1788337379693985, 0.04387650266289711, 0.20075275003910065, 0.09994576871395111, -0.20403552055358887, 0.13945898413658142, 0.04102916270494461, -0.021227309480309486, -0.054374001920223236, 0.039772938936948776, -0.46548476815223694, 0.09044349193572998, -0.027083953842520714, -0.02831186354160309, -0.24501068890094757], [0.10466794669628143, -0.04863161966204643, 0.10139865428209305, -0.3106522858142853, 0.0479377917945385, -0.1721530556678772, -0.0949573740363121, 0.32782092690467834, 0.16555732488632202, 0.062390077859163284, 0.1410256028175354, 0.43885043263435364, -0.04316885024309158, -0.06853295862674713, -0.0865509882569313, 0.3379148542881012], [-0.1607811152935028, -0.03011147864162922, 0.13803060352802277, 0.1424284130334854, 0.03460442274808884, -0.0006288557779043913, 0.03714627027511597, -0.6952252388000488, -0.13306817412376404, -0.026141462847590446, -0.014416943304240704, 0.29957547783851624, 0.013771316036581993, -0.05889616161584854, -0.14985111355781555, 0.26918521523475647], [0.03340169042348862, 0.029419181868433952, -0.033383987843990326, -0.20342421531677246, -0.13862746953964233, 0.07354850322008133, 0.05823870003223419, -0.35170990228652954, 0.045457806438207626, -0.048011742532253265, 0.06917329877614975, 0.7929375171661377, 0.05229245498776436, -0.06028478965163231, 0.018643353134393692, 0.5648577809333801], [0.1373325139284134, -0.07123814523220062, -0.06642377376556396, 0.1635805368423462, -0.031596589833498, -0.02589431218802929, 0.05053795874118805, 0.44397202134132385, -0.0076456377282738686, 0.07507602870464325, -0.05121329054236412, -0.8232074975967407, -0.07063886523246765, 0.15351442992687225, -0.08258768916130066, -0.42361825704574585], [0.09078674018383026, -0.0012927220668643713, -0.05368369445204735, -0.47127553820610046, -0.0017610121285542846, 0.07957199215888977, 0.10810356587171555, 0.6406683325767517, -0.10037492960691452, 0.0005384019459597766, -0.06615550816059113, 0.43483224511146545, 0.06571656465530396, 0.08641594648361206, -0.1317291110754013, 0.27057603001594543], [0.1670805811882019, 0.08161071687936783, 0.01849553920328617, 0.4210834503173828, 0.09713783115148544, 0.13561534881591797, -0.028281021863222122, -0.43340060114860535, 0.0457838773727417, 0.15345467627048492, 0.11956428736448288, -0.4059152603149414, 0.04058612883090973, -0.10512658208608627, -0.11316312104463577, -0.22904132306575775], [-0.041403260082006454, -0.10771173238754272, -0.02251165173947811, 0.4804689884185791, -0.04367176070809364, -0.03914579376578331, -0.023083433508872986, -0.20770065486431122, 0.02681087702512741, -0.002618412021547556, 0.02458864077925682, -0.6357746720314026, -0.04599856212735176, -0.05835964158177376, -0.0017446031561121345, -0.5798464417457581], [0.06945052742958069, -0.11109142005443573, 0.0273890383541584, 0.43555110692977905, -0.12891678512096405, -0.019801124930381775, -0.017514251172542572, -0.15498270094394684, -0.06224202364683151, -0.016610627993941307, 0.06745568662881851, -0.8603729605674744, 0.12505324184894562, 0.052888378500938416, -0.03565533459186554, -0.5589191317558289], [-0.03350494056940079, -0.04194418340921402, -0.026384662836790085, -0.28761157393455505, 0.03730715811252594, -0.06155820190906525, -0.046792373061180115, 0.20014066994190216, -0.12189356982707977, 0.09457717090845108, 0.12894266843795776, 0.39510053396224976, 0.002802995266392827, 0.11438924819231033, -0.07935301959514618, 0.243198961019516], [-0.055613547563552856, 0.028266578912734985, 0.07724250853061676, 0.442857563495636, 0.0744507685303688, 0.002339540747925639, -0.025881396606564522, -0.7415948510169983, 0.005069550592452288, 0.037349551916122437, -0.016075249761343002, -0.163377046585083, -0.13092924654483795, 0.06975764036178589, -0.0076403869315981865, 0.12077034264802933], [-0.10983140766620636, 0.06930647045373917, 0.022373154759407043, 0.01765875332057476, -0.008185245096683502, -0.016388455405831337, 0.011648256331682205, 0.7867972254753113, -0.05727176368236542, 0.011131779290735722, 0.022202134132385254, -0.7553296089172363, 0.11435645818710327, -0.056718528270721436, -0.06542695313692093, -0.5442916750907898], [0.08447442203760147, -0.0025168913416564465, 0.13349170982837677, -0.18414214253425598, -0.038174159824848175, -0.11491174250841141, 0.07057509571313858, -0.5532996654510498, -0.05111369118094444, -0.09678477793931961, -0.0886414647102356, 0.513794481754303, 0.18257737159729004, 0.06041261553764343, -0.03777630999684334, 0.4138079285621643], [0.006333277095109224, -0.14071835577487946, 0.10947585850954056, 0.001167556387372315, 0.17922790348529816, 0.02317366749048233, -0.14123421907424927, -0.08260838687419891, 0.026277810335159302, -0.03615545481443405, -0.1358603537082672, 0.0245224479585886, 0.06731381267309189, 0.03639613464474678, -0.03610016405582428, -0.01668502576649189]], "first_layer.bias": [0.06551960855722427, -0.008088859729468822, 0.00855812057852745, -0.09472055733203888, -0.05139054358005524, 0.17294609546661377, -0.09861418604850769, -0.022336820140480995, -0.06301028281450272, 0.018316728994250298, 0.03798799589276314, -0.06104746088385582, -0.10349846631288528, -0.01714366488158703, -0.03132638335227966, -0.018618684262037277, 0.03928358107805252, 0.09528587758541107, -0.032214853912591934, -0.06137903407216072, -0.07279699295759201, -0.015991276130080223, 0.03976292163133621, 0.037353724241256714, -0.006013308186084032, 0.045236244797706604, 0.023063059896230698, -0.04732201248407364, -0.06288925558328629, -0.034718986600637436, -0.0345141738653183, 0.036718565970659256], "expander.0.0.weight": [[-0.036171168088912964, -0.14293082058429718, 0.03448977321386337, 0.0833270475268364, -0.016899101436138153, -0.3140583634376526, -0.06577470898628235, -0.01910371333360672, -0.008903147652745247, 0.03816315531730652, 0.047325849533081055, 0.025010034441947937, -0.02308015152812004, -0.0001302445016335696, 0.031451258808374405, -0.10850318521261215, 0.06727064400911331, -0.20191442966461182, 0.06824404746294022, 0.1817646324634552, -0.02500099316239357, 0.08534260094165802, 0.03961944952607155, 0.19125798344612122, 0.08619172871112823, -0.28394418954849243, -0.09146934002637863, -0.0078053707256913185, -0.019811170175671577, -0.109348826110363, 0.18131029605865479, -0.0531538687646389], [-0.15437051653862, -0.16343899071216583, -0.026678668335080147, 0.05991710349917412, 0.0512336827814579, -0.03425091132521629, -0.07143910229206085, -0.1606355607509613, 0.09117904305458069, 0.15331342816352844, -0.0465761236846447, 0.1951282024383545, -0.030323954299092293, 0.2993987500667572, -0.230744406580925, -0.09978998452425003, -0.07628370821475983, 0.03959042951464653, -0.18676361441612244, -0.12041740864515305, 0.30487126111984253, 0.2507295608520508, -0.2838349938392639, 0.041877515614032745, 0.12346331775188446, -0.06734702736139297, -0.12050548940896988, 0.013005071319639683, -0.01742357388138771, 0.051085080951452255, 0.07697389274835587, -0.04708687588572502], [0.14262405037879944, -0.11212573200464249, 0.057098597288131714, 0.1418674886226654, 0.04842059314250946, -0.1863010823726654, -0.041121844202280045, -0.02474125660955906, 0.042319975793361664, -0.04766222834587097, -0.04669611155986786, -0.0084586376324296, -0.03777928650379181, 0.12441989779472351, -0.012152271345257759, -0.2093440741300583, -0.10804041475057602, -0.20151498913764954, -0.012984988279640675, -0.10452121496200562, 0.24311108887195587, -0.00815834105014801, -0.11620678752660751, 0.09774700552225113, 0.01207192987203598, -0.10925565659999847, -0.021333182230591774, -0.12045535445213318, 0.1375795602798462, -0.09255407750606537, 0.22648093104362488, 0.06839470565319061], [0.1680629998445511, -0.29490962624549866, 0.14099545776844025, -0.20237179100513458, 0.17582900822162628, -0.07082325965166092, -0.1593082994222641, 0.08725154399871826, 0.08169156312942505, -0.14186395704746246, 0.23599867522716522, 0.04589051008224487, 0.13600684702396393, 0.21542492508888245, -0.07874798029661179, -0.017481161281466484, -0.1091955304145813, 0.015855468809604645, -0.29205840826034546, -0.11082836240530014, -0.13777536153793335, 0.11697220057249069, -0.030026502907276154, 0.13063640892505646, 0.1312119960784912, -0.0670703873038292, -0.10152044147253036, -0.021673236042261124, -0.09483931213617325, 0.022597340866923332, -0.13639004528522491, -0.13484039902687073], [0.07257160544395447, -0.0029768457170575857, 0.15822793543338776, 0.031542129814624786, 0.07944419234991074, -0.22955559194087982, -0.10461992770433426, -0.022297408431768417, 0.03038984164595604, -0.14443974196910858, 0.10517679154872894, 0.13552647829055786, -0.11559543013572693, -0.19181577861309052, 0.03626381605863571, -0.15220020711421967, 0.18745531141757965, -0.09875460714101791, 0.09828471392393112, 0.14868712425231934, -0.2080565243959427, 0.0966777503490448, 0.26585716009140015, 0.15206506848335266, -0.0821698009967804, -0.07997889816761017, 0.05597406253218651, 0.022870032116770744, -0.16110393404960632, -0.09091711044311523, 0.030198832973837852, -0.11760726571083069], [0.0626506358385086, -0.16937637329101562, -0.16473031044006348, -0.14130988717079163, -0.07694804668426514, -0.10529809445142746, -0.09663989394903183, -0.06946802139282227, -0.10490509867668152, 0.15826080739498138, -0.24403710663318634, -0.29637691378593445, 0.17129503190517426, 0.3378194272518158, 0.0014678980223834515, 0.09611339122056961, 0.034065131098032, -0.007574475836008787, -0.24146144092082977, 0.006509784143418074, 0.027439935132861137, 0.17513680458068848, -0.29239097237586975, -0.26202359795570374, 0.19057556986808777, -0.017114916816353798, 0.024474497884511948, 0.015859663486480713, 0.17127685248851776, -0.2032686471939087, 0.013623932376503944, -0.02725387178361416], [0.11203420907258987, 0.07365991175174713, 0.06613588333129883, 0.08435458689928055, -0.013208504766225815, -0.15686912834644318, 0.205407053232193, -0.09364094585180283, -0.020702777430415154, -0.15794923901557922, 0.049952682107686996, 0.13103583455085754, 0.11308738589286804, 0.021393632516264915, 0.025419872254133224, 0.11273717135190964, -0.009151489473879337, -0.19110336899757385, 0.10545288771390915, 0.03995669633150101, -0.06841710209846497, -0.0299666877835989, 0.13236980140209198, -0.1388937532901764, 0.15720322728157043, -0.04967596381902695, 0.18561631441116333, -0.14871448278427124, 0.09127458930015564, -0.006488482002168894, 0.1773751974105835, -0.0834202766418457], [-0.1016901433467865, -0.3826376497745514, -0.188256174325943, 0.04685455933213234, -0.003531416179612279, -0.03597404807806015, 0.0643949806690216, -0.2794971466064453, 0.12519553303718567, -0.1613360494375229, 0.09086140990257263, -0.019267847761511803, 0.15906529128551483, 0.3579375743865967, -0.10271056741476059, -0.13640247285366058, 0.19161459803581238, 0.09817178547382355, 0.0019460333278402686, 0.07182564586400986, 0.1692550629377365, 0.2683517336845398, -0.16364291310310364, -0.03271907940506935, 0.04644213989377022, -0.12316635996103287, -0.09100877493619919, -0.019657760858535767, 0.14486895501613617, -0.42953529953956604, 0.20624463260173798, -0.009674190543591976], [0.08966673910617828, 0.16457165777683258, 0.10695552825927734, 0.08632286638021469, 0.08081464469432831, 0.0998230054974556, -0.08525977283716202, 0.26393184065818787, -0.0014546610182151198, 0.09982739388942719, -0.14304956793785095, 0.0893305093050003, -0.1411188691854477, -0.19268156588077545, -0.033665817230939865, -0.026005098596215248, 0.07580427825450897, 0.008698023855686188, 0.3201858401298523, 0.13435158133506775, -0.07753919810056686, -0.03282047063112259, -3.914792978321202e-05, 0.016853440552949905, 0.01064259372651577, 0.11478278785943985, 0.08850535750389099, -0.08070757985115051, -0.20605431497097015, 0.13442304730415344, -0.03845764324069023, 0.05493767186999321], [-0.06985475867986679, 0.011850268580019474, -0.11140023916959763, 0.058486197143793106, 0.04753675311803818, 0.19078853726387024, -0.15720698237419128, 0.04573263227939606, 0.08351548761129379, 0.07781089097261429, 0.08146496117115021, -0.10765200108289719, -0.09305566549301147, -0.07492339611053467, -0.09034356474876404, -0.0665057897567749, -0.08958527445793152, 0.023890994489192963, -0.09776665270328522, -0.06758806109428406, 0.021111683920025826, -0.08013346791267395, -0.10854408890008926, 0.10383935272693634, 0.07690735906362534, 0.01697901263833046, -0.24080227315425873, -0.046104997396469116, 0.03296883404254913, 0.003544849343597889, -0.21397076547145844, 0.05812887102365494], [0.05616153031587601, 0.1359013468027115, 0.10978224873542786, 0.05667703598737717, -0.024840958416461945, -0.009304843842983246, 0.12868748605251312, -0.2106243371963501, -0.02715151757001877, -0.11106336861848831, -0.07673056423664093, 0.267245352268219, 0.023876575753092766, 0.16337747871875763, -0.21801820397377014, 0.08475948125123978, 0.16677908599376678, 0.1856970489025116, 0.04373008385300636, -0.09791672974824905, 0.08186352252960205, 0.24370558559894562, -0.049273617565631866, -0.09072922170162201, -0.12426811456680298, 0.20224285125732422, 0.13989773392677307, -0.12246879935264587, -0.09714245051145554, 0.019278503954410553, 0.11232319474220276, -0.22980958223342896], [0.16378527879714966, 0.0678023174405098, 0.028916897252202034, -0.03263144567608833, -0.05750500038266182, -0.04746106266975403, -0.009262465871870518, 0.03578672185540199, 0.011485307477414608, -0.14459581673145294, -0.054912954568862915, 0.010567965917289257, -0.09981799870729446, 0.03424857184290886, 0.05728589743375778, 0.13859647512435913, -0.006055677309632301, -0.14209191501140594, 0.09146685898303986, 0.008282994851469994, -0.1512880027294159, -0.17873957753181458, 0.29962077736854553, -0.1704842448234558, 0.3493281304836273, 0.14934450387954712, 0.20833010971546173, -0.1033269539475441, 0.2664477825164795, -0.020842812955379486, -0.0790213868021965, 0.08079561591148376], [-0.05029300972819328, 0.2716951072216034, 0.10361456871032715, -0.024365190416574478, -0.1347678303718567, 0.16026189923286438, -0.09780234843492508, 0.07281286269426346, 0.01235997211188078, -0.017981650307774544, 0.05358724668622017, -0.07663692533969879, 0.10995210707187653, -0.21500836312770844, -0.026602210476994514, 0.031642839312553406, 0.05221984535455704, 0.055423762649297714, -0.13146191835403442, -0.06407856941223145, -0.06833779811859131, -0.06747069209814072, 0.03433448076248169, 0.01201788242906332, -0.2918570935726166, -0.0048105004243552685, -0.07110784202814102, 0.2187366485595703, -0.13252243399620056, -0.0032910529989749193, -0.166499525308609, 0.013961227610707283], [-0.08280672132968903, 0.00033983084722422063, 0.0939662978053093, 0.19321048259735107, 0.17469744384288788, -0.15046556293964386, -0.1382618397474289, 0.02529376745223999, 0.09928257763385773, 0.041867949068546295, 0.08411484211683273, 0.17208416759967804, -0.130161851644516, -0.16732573509216309, -0.06974280625581741, -0.2242061197757721, -0.030519118532538414, -0.04073658585548401, -0.07699672132730484, 0.14245931804180145, 0.04941582679748535, 0.02679564617574215, -0.0469396635890007, 0.1317289173603058, -0.11035247147083282, -0.07139300554990768, -0.2077837884426117, -0.02837468683719635, -0.15934860706329346, -0.02388620190322399, 0.02943248674273491, -0.12112743407487869], [0.19102676212787628, -0.08835666626691818, 0.044537242501974106, -0.04026004672050476, -0.0400969572365284, 0.010323647409677505, -0.09856995195150375, -0.010245549492537975, -0.03768273442983627, 0.023978983983397484, -0.012948778457939625, -0.12901759147644043, 0.0873606950044632, -0.05670677497982979, 0.09802290052175522, -0.16967858374118805, -0.0734657421708107, -0.13075026869773865, 0.012718498706817627, -0.25657498836517334, 0.03268923610448837, -0.059863682836294174, -0.09335990250110626, 0.10463027656078339, -0.14692644774913788, -0.16927218437194824, -0.07215490937232971, -0.08787490427494049, -0.07135561853647232, -0.004683095030486584, 0.1033560112118721, 0.15673668682575226], [-0.09990079700946808, 0.006470175459980965, 0.16200082004070282, -0.004250295925885439, -0.2545202970504761, 0.026766296476125717, 0.11931333690881729, -0.06959544122219086, -0.024006791412830353, -0.033531591296195984, -0.39211535453796387, 0.03308999910950661, 0.11166146397590637, 0.11908916383981705, 0.0055634630843997, 0.13121384382247925, 0.29545143246650696, 0.09807495027780533, 0.3398144245147705, 0.13996222615242004, 0.08691362291574478, 0.14543507993221283, 0.1264050453901291, 0.0734499990940094, -0.05415638908743858, 0.028311803936958313, 0.18895168602466583, 0.11948859691619873, -0.07709846645593643, -0.1475919783115387, 0.25075623393058777, 0.049116261303424835], [-0.0039132144302129745, 0.05721181631088257, 0.07083418220281601, 0.04817792400717735, -0.07902342081069946, 0.006328200921416283, -0.16470235586166382, 0.06038103997707367, -0.007906118407845497, -0.00042566104093566537, -0.10728772729635239, -0.259024977684021, -0.09754490107297897, 0.07501394301652908, 0.031411703675985336, -0.1531931757926941, 0.14050276577472687, 0.023487482219934464, 0.04273652657866478, 0.0984361469745636, 0.052053291350603104, 0.06709636747837067, -0.050149064511060715, -0.06592917442321777, -0.09972436726093292, -0.040063098073005676, -0.10506559908390045, 0.0375017486512661, 0.07819745689630508, -0.1772465854883194, -0.026924893260002136, -0.04672105610370636], [-0.15407045185565948, -0.05668465048074722, -0.0035279355943202972, -0.06836500018835068, -0.1837892085313797, 0.27380505204200745, -0.032815128564834595, -0.03105747327208519, 0.03629843518137932, 0.03192566707730293, 0.06316310167312622, -0.14398086071014404, 0.2124597430229187, -0.006411848124116659, -0.06683328002691269, 0.0955505445599556, 0.11490773409605026, 0.13365356624126434, 0.030477305874228477, -0.07499096542596817, -0.0796339362859726, 0.08448867499828339, -0.05598284676671028, 0.08001314848661423, -0.10817281156778336, -0.052052780985832214, -0.1188351958990097, 0.23820926249027252, -0.1283370703458786, -0.12377400696277618, -0.11458928883075714, 0.04817363619804382], [-0.2730831503868103, 0.09662055969238281, -0.07999236136674881, 0.2037661224603653, -0.039738159626722336, 0.039641864597797394, 0.048653408885002136, -0.17154188454151154, 0.24131619930267334, -0.3055727481842041, 0.24756532907485962, 0.05943094938993454, -0.024612387642264366, -0.22621706128120422, -0.06673263013362885, -0.00882223155349493, 0.10249387472867966, -0.10292283445596695, -0.04881291463971138, 0.09147229045629501, -0.013004172593355179, -0.028024835512042046, 0.0858629122376442, -0.0756721943616867, 0.07473687082529068, 0.027059663087129593, -0.20690347254276276, -0.04372376203536987, 0.21171878278255463, -0.2980533242225647, -0.24726025760173798, 0.016489839181303978], [0.06395908445119858, -0.2672681212425232, -0.12852466106414795, -0.06597204506397247, -0.12806174159049988, 0.059004899114370346, -0.11314433068037033, -0.019758744165301323, -0.018814047798514366, 0.11073380708694458, 0.0453079491853714, -0.15636028349399567, 0.08781087398529053, 0.3162737786769867, -0.011109466664493084, -0.025560429319739342, 0.16182786226272583, 0.06638488918542862, 0.03215490281581879, 0.0002893860510084778, 0.036210522055625916, 0.1820908933877945, -0.0725039392709732, 0.19430036842823029, 0.1108943447470665, -0.1564265638589859, 0.08471210300922394, 0.1721498817205429, -0.14842592179775238, -0.08112817257642746, 0.12260793149471283, 0.027505766600370407], [0.0013225555885583162, -0.25696825981140137, -0.08204316347837448, -0.06152583658695221, -0.052497003227472305, 0.03907269984483719, -0.11864305287599564, 0.021624956279993057, -0.14683671295642853, 0.3815760314464569, 0.07347661256790161, -0.017306212335824966, 0.07012569159269333, 0.42954379320144653, 0.0010800316231325269, 0.02260958030819893, -0.0467037633061409, 0.1448243260383606, -0.05122969672083855, -0.06044979393482208, 0.148446723818779, 0.0996767207980156, -0.1679076999425888, 0.16234517097473145, 0.0015033314703032374, -0.07397878170013428, 0.16822373867034912, 0.14116768538951874, -0.19665420055389404, 0.37721168994903564, 0.1451023817062378, 0.003323226235806942], [0.11925515532493591, 0.0039308019913733006, -0.05717694014310837, -0.0021015778183937073, 0.24313612282276154, 0.040583398193120956, 0.04065322503447533, 0.11683358252048492, 0.08685823529958725, -0.11438924074172974, 0.02790095843374729, 0.10880790650844574, -0.1033073216676712, 0.03692348673939705, 0.12491343915462494, -0.21137474477291107, -0.23153769969940186, 0.09561949223279953, 0.08092402666807175, -0.04808671772480011, 0.15680031478405, -0.22123749554157257, 0.0984996110200882, -0.13743290305137634, -0.06845486909151077, 0.24472454190254211, 0.15902084112167358, -0.0688842311501503, 0.07626338303089142, 0.1499803364276886, -0.059465423226356506, -0.03229094296693802], [-0.05393870547413826, 0.029056768864393234, -0.04840328171849251, 0.1714158058166504, 0.047267913818359375, 0.13021455705165863, -0.031458351761102676, 0.08440524339675903, 0.21428819000720978, -0.0876862034201622, 0.025487110018730164, -0.05654207244515419, 0.021315867081284523, 0.14435993134975433, -0.18021193146705627, -0.04577219486236572, -0.05377405136823654, -0.1413232982158661, -0.0029528874438256025, -0.1485692262649536, 0.2164943516254425, 0.011038282886147499, -0.15176546573638916, -0.0028410027734935284, 0.03102099522948265, 0.053771331906318665, -0.10714496672153473, -0.010276050306856632, 0.1881812959909439, -0.1427178531885147, -0.06422793120145798, 0.05394841358065605], [-0.11181391775608063, 0.08909106999635696, -0.10095346719026566, 0.09415820986032486, -0.07308820635080338, -0.27045688033103943, 0.1509574055671692, -0.03328448161482811, -0.11722319573163986, 0.07902094721794128, -0.07711610198020935, -0.07975496351718903, -0.013366902247071266, 0.058540333062410355, 0.04278741776943207, -0.04846964776515961, -0.2077888399362564, -0.20688293874263763, -0.02553950436413288, 0.17567117512226105, 0.22614328563213348, -0.09520626068115234, -0.22202713787555695, -0.05582287162542343, -0.04566420242190361, -0.08165112137794495, -0.10014549642801285, -0.04989755153656006, 0.1512330323457718, 0.10362337529659271, 0.1839471310377121, 0.06407613307237625], [0.22261853516101837, -0.13456569612026215, 0.017345275729894638, -0.11147584766149521, 0.15458564460277557, -0.025649724528193474, -0.15509547293186188, 0.09445583075284958, 0.009426378645002842, -0.1557776927947998, 0.03729238361120224, -0.16534025967121124, 0.19683201611042023, 0.22735202312469482, 0.01379670761525631, 0.07326269149780273, 0.15785688161849976, 0.0702461302280426, 0.03123592957854271, -0.0010419727768748999, -0.12352736294269562, 0.03679969534277916, -0.01890386827290058, -0.3248646557331085, 0.09654425829648972, 0.1765410155057907, 0.1934872418642044, 0.01945234090089798, 0.09084867686033249, -0.20502693951129913, -0.05943791940808296, -0.09608584642410278], [0.08222086727619171, 0.031994014978408813, -0.03744936361908913, -0.09976445883512497, 0.08370739966630936, -0.2651166319847107, 0.08040979504585266, 0.0914391577243805, -0.14682523906230927, 0.07841601222753525, 0.20646749436855316, 0.07570894062519073, -0.002478689653798938, -0.056374479085206985, 0.14457443356513977, 0.027218244969844818, -0.07197242975234985, 0.06619472056627274, -0.0201703030616045, 0.20278514921665192, -0.07511566579341888, -0.08761806786060333, 0.04114944487810135, -0.13297875225543976, 0.04348618909716606, 0.11309260129928589, 0.21315591037273407, 0.0067638675682246685, -0.11599692702293396, 0.34718483686447144, -0.09011773765087128, -0.1185501366853714], [0.0459856353700161, 0.1809127777814865, -0.06040332838892937, -0.17517481744289398, -0.036747660487890244, -0.13342414796352386, -0.06295309960842133, -0.03336687758564949, -0.07735190540552139, 0.10963872820138931, 0.052808746695518494, 0.12605273723602295, -0.16298449039459229, -0.31992307305336, -0.015301297418773174, 0.0003617650945670903, -0.12242796272039413, 0.025799503549933434, -0.1548343151807785, 0.05981745943427086, -0.22507287561893463, -0.07710407674312592, 0.11589772999286652, 0.15378709137439728, -0.11448699235916138, 0.003729758318513632, 0.0196677278727293, -0.026351435109972954, -0.2547354996204376, 0.3266361653804779, -0.13096921145915985, -0.07798265665769577], [0.1350400447845459, -0.015163270756602287, 0.011629810556769371, 0.12350261211395264, 0.1566167175769806, -0.2138349413871765, 0.07382316887378693, 0.044389259070158005, -0.04861107096076012, -0.05049705505371094, -0.06136913225054741, 0.02166426181793213, -0.07278904318809509, 0.19523604214191437, 0.12103158980607986, -0.11424771696329117, -0.06084371358156204, 0.039317019283771515, 0.14450091123580933, 0.08886920660734177, 0.09796036034822464, -0.08304630219936371, 0.09948530048131943, -0.282001793384552, 0.12809403240680695, 0.19215375185012817, 0.3409113883972168, -0.08366011083126068, 0.10160226374864578, 0.09946144372224808, 0.13100667297840118, -0.013474338687956333], [-0.1606575846672058, -0.044009994715452194, -0.035865526646375656, 0.07437466830015182, 0.05316025763750076, -0.02296675182878971, 0.06989159435033798, -0.011686103418469429, -0.01220675092190504, 0.14606961607933044, 0.07469555735588074, 0.11273415386676788, 0.10550204664468765, -0.24726295471191406, -0.07524238526821136, -0.20510274171829224, 0.10395442694425583, 0.09188622236251831, 0.007428082637488842, 0.12688668072223663, -0.016814859583973885, 0.1466394066810608, -0.3103780448436737, 0.08180452883243561, -0.2856215834617615, -0.147215336561203, -0.23642972111701965, 0.03318221494555473, -0.2761387526988983, -0.03260417282581329, 0.0793088972568512, -0.02504980005323887], [-0.11888838559389114, -0.0021635079756379128, 0.03477133437991142, 0.04649120196700096, -0.12182596325874329, -0.1436891257762909, -0.13032838702201843, -0.11441057175397873, -0.06834021210670471, 0.11018344014883041, -0.11203185468912125, -0.07972709834575653, -0.1258426010608673, -0.0691220611333847, 0.053327277302742004, -0.1355985850095749, -0.02091599442064762, 0.021322615444660187, -0.24500541388988495, 0.030335107818245888, 0.04292185232043266, 0.14126963913440704, -0.015425290912389755, 0.20644311606884003, -0.2642674744129181, -0.23838575184345245, -0.19694659113883972, 0.1777646839618683, -0.06165539473295212, -0.10100904852151871, 0.06672842055559158, -0.03959532827138901], [0.13880474865436554, -0.29884830117225647, 0.2480553537607193, -0.0534878708422184, 0.19557657837867737, 0.06923317164182663, -0.0732877254486084, -0.023790884763002396, 0.2588779926300049, -0.3106532096862793, -0.11212985217571259, 0.11887189745903015, 0.07278843969106674, 0.12282346189022064, -0.020288674160838127, -0.09406743943691254, 0.04565104469656944, 0.12321586161851883, -0.013987118378281593, -0.1533288061618805, 0.06458239257335663, 0.0050557805225253105, 0.19227516651153564, 0.0519825741648674, 0.05336671322584152, 0.14230172336101532, 0.06064366176724434, -0.02613341622054577, 0.08058370649814606, -0.29299429059028625, -0.03441676124930382, 0.012722665444016457], [0.09428878128528595, 0.21443933248519897, -0.12261962890625, 0.09496886283159256, 0.05396595224738121, 0.03649870306253433, -0.03071541152894497, 0.0010517784394323826, 0.06420940160751343, 0.08463454246520996, 0.32374873757362366, 0.177300825715065, -0.17687197029590607, -0.24741630256175995, 0.15099729597568512, 0.03667585551738739, -0.2077927142381668, -0.10769382864236832, 0.08542291074991226, -0.13947907090187073, -0.07067657262086868, -0.2531029284000397, 0.29105958342552185, 0.17885681986808777, -0.042472630739212036, -0.007976078428328037, 0.15551623702049255, -0.01370985433459282, -0.05696427822113037, 0.44964268803596497, -0.14299404621124268, 0.037406399846076965], [-0.13861028850078583, 0.09491059929132462, 0.019035018980503082, -0.0040454869158566, -0.13775567710399628, 0.02559501677751541, -0.016049014404416084, 0.06406481564044952, -0.07914251834154129, 0.1568351536989212, -0.05349605903029442, -0.11600489914417267, 0.1348801702260971, -0.07265404611825943, -0.10045044124126434, 0.19034941494464874, 0.16825775802135468, -0.08462261408567429, -0.006469439715147018, 0.1537371724843979, -0.10518056899309158, 0.2773997485637665, -0.2818774878978729, 0.1503152996301651, -0.054882459342479706, -0.2903861403465271, -0.26319852471351624, 0.14655187726020813, -0.12983092665672302, -0.07138283550739288, 0.03202439099550247, -0.08355054259300232], [0.12068206071853638, -0.3364287316799164, 0.07422511279582977, -0.09158389270305634, 0.21523980796337128, 0.06352275609970093, -0.06115960702300072, 0.02870446816086769, 0.10425830632448196, -0.08815418928861618, 0.091837078332901, 0.06246679276227951, 0.05663980171084404, 0.4021245539188385, -0.017254862934350967, -0.024752872064709663, -0.15641023218631744, 0.03739936277270317, -0.015335578471422195, -0.14436884224414825, 0.09625067561864853, -0.04821496456861496, 0.06916878372430801, -0.12371470779180527, 0.1994202435016632, 0.10274960845708847, 0.14983130991458893, -0.020344292744994164, 0.1724138706922531, 0.10470978915691376, -0.01622948981821537, -0.05351574346423149], [0.05537698045372963, 0.030858278274536133, -0.13963164389133453, 0.0470811165869236, 0.11520883440971375, -0.03409014269709587, -0.32874858379364014, 0.2955314815044403, 0.1031833216547966, 0.1485828310251236, 0.013576867058873177, -0.32969099283218384, -0.03940565511584282, -0.15270116925239563, 0.1799103021621704, -0.15273290872573853, -0.16741274297237396, -0.1030706986784935, 0.0030438355170190334, 0.10883170366287231, -0.09515435993671417, -0.22503194212913513, -0.07945673167705536, -0.10531075298786163, 0.010000748559832573, 0.026880348101258278, -0.14921309053897858, 0.14141245186328888, 0.08746196329593658, -0.10641958564519882, -0.19693435728549957, 0.13470883667469025], [-0.03385904058814049, -0.23328474164009094, -0.15551869571208954, 0.08260246366262436, -0.09409847855567932, 0.056661467999219894, 0.02654965966939926, -0.23655451834201813, -0.002481740666553378, -0.24209237098693848, 0.018480241298675537, -0.24576596915721893, 0.04591108113527298, 0.43352529406547546, -0.041310444474220276, -0.2004486322402954, 0.30062586069107056, 0.15868256986141205, 0.02458772249519825, 0.0709076002240181, 0.15422405302524567, 0.15967772901058197, -0.1957099586725235, -0.04855983331799507, 0.05235609412193298, -0.02991286665201187, -0.0006817408720962703, 0.003329457249492407, 0.2689224183559418, -0.5637273192405701, 0.16732577979564667, -0.07080535590648651], [-0.04697635769844055, -0.08992317318916321, 0.03900537267327309, -0.18951444327831268, -0.13178829848766327, 0.07923027873039246, 0.2275855839252472, -0.25947248935699463, -0.10006259381771088, -0.11801351606845856, 0.09446733444929123, 0.10045924782752991, -0.0016300046117976308, 0.18191950023174286, -0.007852841168642044, 0.06211606413125992, -0.002116379328072071, 0.13418030738830566, -0.13264086842536926, -0.05175743252038956, 0.016079677268862724, 0.01870950497686863, 0.15465715527534485, 0.12944671511650085, 0.015096872113645077, -0.06752718985080719, 0.014736132696270943, -0.1032884493470192, 0.11737693101167679, -0.025448933243751526, 0.04244556650519371, 0.0721069723367691], [0.1641024351119995, 0.09893769770860672, 0.02674262970685959, -0.10346043854951859, -0.03509939834475517, -0.15125449001789093, 0.09105174988508224, 0.08612356334924698, -0.20995204150676727, 0.06047343835234642, -0.06250880658626556, -0.22725234925746918, 0.2734009623527527, -0.15420012176036835, 0.2836534380912781, -0.01476813293993473, 0.0232425294816494, 0.10530248284339905, -0.12545019388198853, 0.032253604382276535, -0.1841563582420349, 0.05330124497413635, -0.07210108637809753, -0.23770706355571747, -0.20230305194854736, 0.05107914283871651, 0.24451756477355957, 0.08076385408639908, -0.10014218091964722, -0.05296125262975693, 0.07259374856948853, -0.05311555042862892], [0.21439525485038757, 0.15321697294712067, -0.07207734137773514, 0.04184810072183609, -0.055430322885513306, 0.10942712426185608, 0.11838939785957336, -0.2164134681224823, -0.08315374702215195, -0.18534062802791595, 0.13836729526519775, 0.009299228899180889, 0.005169883370399475, -0.18777234852313995, 0.053191136568784714, 0.018155472353100777, 0.04005248844623566, -0.12572409212589264, -0.09032559394836426, -0.2563961148262024, -0.058732300996780396, 0.021222518756985664, 0.07765883952379227, 0.006998042576014996, -0.10697981715202332, 0.0043784151785075665, -0.008803362026810646, -0.22509369254112244, 0.04144786670804024, -0.12645862996578217, -0.0025899044703692198, -0.04408397898077965], [0.02034231647849083, 0.09130684286355972, 0.12762904167175293, -0.034242983907461166, -0.15015332400798798, 0.05801255628466606, -0.07488421350717545, -0.02671712450683117, -0.10577495396137238, 0.09569274634122849, -0.027864232659339905, -0.18663528561592102, -0.18742376565933228, 0.10344454646110535, 0.028177877888083458, 0.04848315194249153, -0.12101490050554276, -0.004078465513885021, -0.0748063325881958, -0.0377424918115139, 0.11793239414691925, -0.14495939016342163, 0.10446169972419739, -0.02076813206076622, 0.023136571049690247, 0.03895855322480202, 0.07802213728427887, 0.047467801719903946, 0.1527787148952484, 0.09209425002336502, -0.059225622564554214, -0.07916685938835144], [-0.17833474278450012, 0.03606892377138138, 0.09280528873205185, 0.13768722116947174, 0.1487395167350769, 0.0011087205493822694, 1.696385515970178e-05, -0.02931515872478485, 0.11278112977743149, 0.08265522122383118, -0.10468091815710068, 0.265351265668869, -0.13242916762828827, -0.036960896104574203, -0.18337425589561462, 0.10910350829362869, -0.18715140223503113, -0.015218810178339481, -0.005782687570899725, 0.09052366018295288, 0.043293580412864685, -0.02434280887246132, 0.03969668596982956, 0.028301041573286057, 0.18873544037342072, 0.09179636090993881, -0.012778219766914845, -0.11077295243740082, -0.060085415840148926, 0.19996273517608643, -0.1554303914308548, -0.09081677347421646], [-0.06379327178001404, -0.04167876020073891, -0.05049921199679375, -0.11654112488031387, 0.048166561871767044, 0.022734161466360092, 0.11422806978225708, 0.03991544246673584, 0.09815911948680878, -0.027305467054247856, 0.178681880235672, 0.10925688594579697, 0.19875012338161469, -0.1693853735923767, 0.08926226198673248, 0.23860949277877808, -0.08170394599437714, -0.018248800188302994, 0.07831674069166183, 0.01147876214236021, -0.16971687972545624, -0.17339158058166504, 0.19222868978977203, 0.07088837027549744, 0.09611860662698746, 0.012546001002192497, 0.023295829072594643, 0.0016977210761979222, -0.07214897125959396, 0.13004501163959503, -0.0978558287024498, 0.12775243818759918], [0.24852024018764496, 0.03345853462815285, -0.09416049718856812, 0.04562027007341385, 0.12131694704294205, 0.08433496206998825, -0.09708569943904877, 0.21423554420471191, 0.05032280087471008, -0.008988423272967339, 0.16585750877857208, 0.032887253910303116, -0.05849403887987137, -0.043729569762945175, 0.010127886198461056, -0.050482507795095444, 0.03757074847817421, -0.18317292630672455, 0.1000307947397232, -0.028637154027819633, -0.15259124338626862, 0.06097310781478882, 0.015403936617076397, -0.047708213329315186, 0.1380663365125656, 0.028865350410342216, 0.16343577206134796, -0.12399806827306747, -0.10995408892631531, 0.1330164670944214, 0.012648682110011578, -0.08001923561096191], [-0.18758240342140198, 0.21492737531661987, -0.02358810231089592, 0.012592561542987823, -0.06388497352600098, -0.07889937609434128, 0.09625725448131561, 0.007294204086065292, 0.03679125756025314, 0.04191625490784645, 0.1253845989704132, 0.06754349917173386, 0.09998169541358948, -0.12271952629089355, -0.023735255002975464, 0.20485544204711914, 0.01383910607546568, 0.13846145570278168, -0.024750065058469772, 0.1422138214111328, -0.1214534193277359, 0.06693834066390991, 0.13589328527450562, -0.2070293426513672, 0.089944027364254, 0.15642790496349335, 0.15796016156673431, 0.13270333409309387, -0.07373837381601334, 0.17174744606018066, -0.1799863874912262, -0.0953245535492897], [0.15206678211688995, 0.05553930997848511, 0.05795244127511978, 0.02440849505364895, -0.06602874398231506, 0.0893978625535965, 0.04095922410488129, 0.03564875200390816, -0.10847259312868118, 0.044982511550188065, -0.043213218450546265, -0.003951522521674633, -0.05220852047204971, -0.08057289570569992, 0.15086093544960022, -0.07771755009889603, -0.004042598884552717, -0.08903692662715912, 0.21607761085033417, -0.12695536017417908, -0.07028154283761978, -0.06777940690517426, 0.1066296249628067, 0.2130841165781021, -0.37022629380226135, -0.05969543009996414, 0.23436960577964783, 0.09841037541627884, -0.23504415154457092, 0.18740813434123993, 0.23496562242507935, 0.07067273557186127], [-0.28850317001342773, -0.08126671612262726, -0.15018269419670105, -0.0014665717026218772, -0.15016469359397888, 0.11065708845853806, 0.07918635755777359, 0.014687231741845608, -0.019332105293869972, 0.13296905159950256, -0.056052979081869125, 0.023592088371515274, -0.18314780294895172, -0.1067986711859703, 0.161192387342453, -0.01706434227526188, -0.028945598751306534, 0.044134851545095444, 0.1883784532546997, 0.2574315369129181, 0.11786213517189026, -0.17562349140644073, 0.1950152963399887, 0.16029396653175354, -0.0014218729920685291, -0.05182936415076256, 0.01845369301736355, 0.16246329247951508, -0.025658613070845604, 0.1032857894897461, 0.042880721390247345, 0.22666826844215393], [-0.09187653660774231, -0.006775861606001854, 0.1542549431324005, 0.1280377209186554, -0.03434329852461815, 0.09095076471567154, -0.1436389833688736, 0.046509746462106705, 0.12276221066713333, 0.036189157515764236, -0.14367711544036865, 0.24442130327224731, -0.15077327191829681, -0.030178049579262733, -0.14858271181583405, 0.08908702433109283, 0.05092134326696396, -0.0702616423368454, 0.21868956089019775, 0.0215949397534132, 0.09159651398658752, 0.030618999153375626, 0.17123661935329437, 0.2785702347755432, 0.09851619601249695, -0.051195405423641205, 0.01991359330713749, -0.010816395282745361, -0.13086184859275818, 0.07561172544956207, -0.06699098646640778, -0.016478216275572777], [-0.07531030476093292, 0.21057122945785522, -0.35080358386039734, 0.12599551677703857, -0.1341111958026886, 0.1609092652797699, 0.25940680503845215, -0.023486262187361717, -0.14196118712425232, 0.12515947222709656, 0.4345523715019226, -0.07727553695440292, -0.0653330609202385, -0.029677197337150574, -0.08453896641731262, 0.03089827299118042, 0.04887767136096954, -0.012621703557670116, 0.11595385521650314, 0.11895173043012619, 0.10420069098472595, -0.004655658267438412, -0.3415462374687195, -0.2976330816745758, -0.02115723118185997, 0.041778042912483215, 0.02697041630744934, -0.1286596655845642, 0.05162837356328964, 0.20053784549236298, 0.11485418677330017, 0.01319289579987526], [-0.03292073681950569, -0.14682438969612122, 0.030511924996972084, -0.1662941873073578, 0.1572449505329132, 0.010426699183881283, 0.0005673985579051077, 0.13542373478412628, -0.017641661688685417, 0.10649667680263519, -0.00017486886645201594, -0.05646973475813866, 0.09597749263048172, -0.20123600959777832, -0.04061571881175041, -0.13382361829280853, -0.11461374908685684, -0.05968238040804863, -0.163092240691185, 0.12861871719360352, -0.05559439957141876, 0.08130083978176117, -0.256268173456192, -0.023951932787895203, 0.10830920934677124, -0.13888989388942719, -0.30666062235832214, -0.12231168150901794, -0.07579886168241501, -0.10410838574171066, 0.0249787550419569, 0.15618175268173218], [-0.06320144236087799, -0.17124275863170624, -0.029863832518458366, -0.08021028339862823, 0.13837210834026337, 0.1347489207983017, 0.17005906999111176, 0.11114827543497086, 0.00903585460036993, 0.010330489836633205, -0.022156229242682457, 0.00537685165181756, 0.18957684934139252, -0.16737672686576843, 0.08655849099159241, -0.1058177649974823, -0.08349087834358215, 0.0854467824101448, 0.22598257660865784, 0.17161880433559418, -0.05952480062842369, -0.11696434020996094, -0.04870342090725899, -0.01762000098824501, 0.11937201768159866, -0.005900410003960133, -0.01814015582203865, -0.05383802205324173, -0.012079703621566296, -0.05608339235186577, 0.12126737087965012, 0.23906667530536652], [0.15870808064937592, 0.1537807732820511, -0.019251033663749695, -0.017287278547883034, -0.025362316519021988, 0.07990942150354385, 0.029758963733911514, 0.13632263243198395, 0.06855116784572601, -0.07210597395896912, -0.08091453462839127, 0.02687091752886772, 0.059711094945669174, 0.14898507297039032, 0.11847439408302307, 0.10108720511198044, -0.03072311170399189, 0.07649032771587372, 0.10936533659696579, -0.21572189033031464, 0.007612133864313364, -0.17512241005897522, 0.1747124195098877, -0.23167090117931366, -0.07618498057126999, 0.30476516485214233, 0.3474276661872864, -0.02045396901667118, 0.04836960509419441, 0.1736331582069397, -0.10291944444179535, 0.03937128931283951], [-0.09452251344919205, 0.10420732200145721, -0.03410308435559273, -0.0019630074966698885, -0.10896077007055283, 0.0540710873901844, -0.08796422183513641, -0.019086046144366264, -0.05598762258887291, 0.09368079900741577, 0.12644948065280914, -0.07543990015983582, 0.08389356732368469, -0.25427326560020447, -0.08263125270605087, 0.10653895139694214, -0.02491600066423416, -0.14666546881198883, -0.08099007606506348, -0.10157153010368347, -0.17952820658683777, 0.059727516025304794, -0.04900064691901207, 0.22542661428451538, -0.12921380996704102, -0.21646848320960999, -0.2693493962287903, 0.1109757199883461, -0.21244525909423828, 0.0345621332526207, -0.07400523871183395, 0.03655916452407837], [0.07304710894823074, 0.07897114008665085, 0.020625408738851547, -0.005754899233579636, 0.013251099735498428, -0.282922625541687, 0.07526328414678574, -0.08726752549409866, -0.12337833642959595, 0.08507467806339264, -0.13543875515460968, 0.026920972391963005, -0.04756457358598709, -0.03954793140292168, -0.030414018779993057, -0.08615501970052719, 0.04183124378323555, -0.04725164920091629, -0.14668530225753784, 0.024244675412774086, 0.057540521025657654, 0.0867832750082016, -0.13411878049373627, -0.07528019696474075, -0.014934643171727657, -0.06627219915390015, -0.05908651649951935, -0.11287117749452591, -0.024585971608757973, -0.04078003019094467, 0.2168574333190918, -0.014347167685627937], [-0.24884483218193054, 0.11808101087808609, 0.11465650051832199, -0.09619343280792236, -0.11176813393831253, -0.0681915208697319, 0.3281112313270569, -0.2622990310192108, -0.10938628762960434, -0.2432776838541031, 0.01224722620099783, 0.10438322275876999, 0.08398360013961792, -0.27104541659355164, 0.0019001452019438148, 0.04914306104183197, 0.029161088168621063, 0.08096450567245483, -0.19359952211380005, 0.11810822784900665, -0.03892751410603523, 0.018402187153697014, 0.04394058883190155, -0.19841980934143066, -0.19800043106079102, 0.09652137011289597, -0.23694732785224915, -0.109401173889637, 0.12592385709285736, -0.21309398114681244, -0.11796931177377701, -0.025703418999910355], [0.06547683477401733, -0.04140455275774002, 0.05313095822930336, -0.019941886886954308, -0.009707752615213394, 0.025290437042713165, 0.0011133532971143723, -0.06408265978097916, 0.028430858626961708, -0.24277928471565247, 0.26157158613204956, -0.16166377067565918, 0.2771573066711426, -0.24085533618927002, 0.008542032912373543, -0.15313416719436646, 0.19022797048091888, -0.0363689661026001, 0.012568198144435883, 0.03658418357372284, -0.20128218829631805, -0.010491181164979935, 0.02733238972723484, 0.04476045072078705, -0.18508140742778778, -0.11213470250368118, -0.2761054039001465, -0.01983567699790001, 0.031077712774276733, -0.36498308181762695, 0.05798407644033432, 0.08715163916349411], [0.13611604273319244, 0.3693699538707733, 0.20352455973625183, 0.1441836953163147, -0.09606999158859253, -0.08570016175508499, -0.20714443922042847, 0.09997205436229706, -0.06929593533277512, 0.011351766996085644, -0.09834689646959305, -0.06999009102582932, -0.14274385571479797, 0.048165254294872284, -0.06909698247909546, 0.07306404411792755, 0.1680588275194168, -0.08254102617502213, -0.06528636068105698, -0.15658336877822876, -0.03469020500779152, 0.1614304631948471, -0.02293103188276291, 0.02707987278699875, -0.058280982077121735, 0.035589829087257385, 0.0510079562664032, 0.07450933009386063, -0.00555017963051796, 0.06454043835401535, -0.12136036902666092, -0.399909108877182], [0.019583219662308693, -0.021732671186327934, 0.0012347698211669922, -0.09190913289785385, 0.02889678254723549, 0.3042002320289612, -0.15701338648796082, 0.038713239133358, 0.10451929271221161, -0.06432868540287018, -0.12957458198070526, -0.022808652371168137, 0.15627041459083557, 0.008065227419137955, -0.18220292031764984, 0.12698853015899658, 0.104363813996315, 0.056411080062389374, 0.018117642030119896, -0.1558111608028412, -0.11936556547880173, 0.156182199716568, -0.051033493131399155, 0.01341121643781662, -0.0033555133268237114, 0.1284768134355545, 0.011455061845481396, -0.055268652737140656, -0.12744100391864777, -0.060140546411275864, -0.2243487536907196, -0.0609331838786602], [0.11249831318855286, -0.026254869997501373, 0.053697869181632996, 0.13917841017246246, -0.013142905198037624, 0.2603509724140167, -0.07935864478349686, 0.0005286139203235507, 0.13878092169761658, 0.013120122253894806, -0.17069672048091888, 0.02777894400060177, -0.024615002796053886, 0.013964580371975899, -0.06732496619224548, -0.12569952011108398, -0.1039142906665802, -0.20812952518463135, 0.13604289293289185, -0.25730499625205994, 0.20966631174087524, -0.09582112729549408, -0.0590047724545002, 0.18337735533714294, -0.04493775591254234, -0.07362869381904602, -0.043825045228004456, -0.1158217042684555, -0.0026427709963172674, -0.05707426369190216, 0.16034585237503052, 0.18898209929466248], [0.09399505704641342, 0.031234070658683777, -0.004028689116239548, 0.00672509241849184, 0.11536857485771179, -0.032645680010318756, 0.12229248881340027, 0.03351757675409317, 0.012671375647187233, -0.006750958040356636, -0.06587886810302734, 0.045796092599630356, -0.053801506757736206, 0.17326310276985168, -0.030158888548612595, 0.09478307515382767, -0.21416018903255463, -0.14362405240535736, 0.038468148559331894, -0.03493032976984978, 0.1892886608839035, -0.14281202852725983, -0.051363345235586166, -0.24311894178390503, 0.2546258270740509, 0.11966046690940857, 0.14861884713172913, -0.113438181579113, 0.30272752046585083, 0.12217116355895996, 0.058555968105793, -0.02316778153181076], [-0.026248155161738396, -0.19590255618095398, 0.08887605369091034, -0.0927046611905098, 0.09090063720941544, -0.03635649010539055, -0.14142906665802002, 0.10585612058639526, 0.07291614264249802, -0.030222633853554726, -0.26911675930023193, -0.003802443854510784, -0.08346034586429596, 0.024350296705961227, 0.11042594164609909, -0.19343802332878113, -0.03510322421789169, 0.1935124695301056, -0.06975647062063217, 0.03822606801986694, 0.11036065965890884, -0.0542876161634922, 0.17043261229991913, 0.2577611207962036, -0.1862347275018692, 0.03939451649785042, -0.06001649796962738, 0.17941053211688995, -0.14490938186645508, -0.15080569684505463, 0.0273418165743351, 0.14214541018009186], [-0.11944451928138733, 0.06872288137674332, 0.00673203868791461, -0.10438581556081772, -0.11783301085233688, -0.07177920639514923, 0.02529411017894745, 0.011686548590660095, -0.11271410435438156, 0.08034063875675201, -0.1198740303516388, -0.04157433658838272, -0.0834500715136528, -0.17199169099330902, -0.02634298801422119, 0.16744178533554077, -0.1257641613483429, -0.24801389873027802, -0.026011839509010315, 0.12594915926456451, -0.06889774650335312, -0.09623012691736221, 0.002993111265823245, 0.1980282962322235, 0.058608539402484894, -0.23890936374664307, -0.18243378400802612, 0.053661614656448364, -0.08795683085918427, 0.029618950560688972, 0.07158029079437256, 0.10450614988803864], [-0.2756650149822235, -0.06655009090900421, 0.05790412425994873, -0.02785889431834221, 0.07017666846513748, 0.04134911671280861, -0.12405984103679657, 0.11107137799263, 0.1484769880771637, 0.044368863105773926, 0.01165711134672165, -0.058830808848142624, 0.12045273184776306, -0.061017993837594986, 0.040111739188432693, 0.05063709244132042, 0.08571995794773102, 0.2467765361070633, -0.06760372221469879, 0.15801355242729187, -0.07331070303916931, -0.04535927250981331, 0.15100550651550293, -0.052469782531261444, -9.468059579376131e-05, 0.1831163763999939, 0.08932522684335709, 0.3505581021308899, -0.11242751777172089, -0.060776278376579285, -0.17678490281105042, -0.07961366325616837], [-0.039100684225559235, -0.08289586007595062, 0.14681002497673035, -0.0003518541343510151, -0.002588005969300866, -0.06314919143915176, -0.10452141612768173, 0.044341180473566055, 0.045213084667921066, -0.1094021424651146, -0.28616583347320557, -0.1025259718298912, 0.024800870567560196, 0.03363041579723358, -0.08711224794387817, -0.08644700050354004, 0.12826162576675415, 0.06178448349237442, 0.005796189419925213, 0.15332718193531036, -0.000332945171976462, 0.045734696090221405, 0.028199872002005577, -0.0280073881149292, 0.05601419508457184, -0.02411961369216442, -0.10511519759893417, 0.008187168277800083, 0.014009685255587101, -0.3219839036464691, 0.07225365191698074, 0.02921489253640175], [-0.2048911601305008, 0.15666218101978302, -0.006036953069269657, -0.0525827519595623, -0.035865090787410736, 0.13810470700263977, 0.11169394850730896, 0.003743304405361414, -0.07842054963111877, 0.036485761404037476, -0.14183209836483002, -0.04259605333209038, 0.06321095675230026, 0.07818923145532608, -0.05270126834511757, 0.08879220485687256, -0.14547157287597656, 0.1425066739320755, -0.14003604650497437, -0.15570779144763947, 0.20532186329364777, -0.04283527284860611, -0.18987643718719482, -0.17625872790813446, -0.21556219458580017, 0.14512048661708832, -0.03145797923207283, 0.10069239139556885, 0.1180170550942421, 0.16544412076473236, -0.04507799074053764, 0.055713146924972534]], "expander.0.0.bias": [-0.2046813815832138, 0.027917329221963882, -0.0030638824682682753, 0.1648084670305252, -0.07867759466171265, -0.036803651601076126, -0.2800353169441223, 0.11591354757547379, 0.3444023132324219, 0.1833668053150177, -0.008343909867107868, 0.10726483911275864, -0.043162111192941666, -0.1003933921456337, 0.06146494299173355, -0.015630563721060753, 0.2541655898094177, -0.06223415955901146, -0.07537729293107986, 0.16395530104637146, -0.11780917644500732, 0.19037295877933502, -0.17548862099647522, -0.18988624215126038, 0.0976400226354599, 0.10576464235782623, 0.24240240454673767, -0.15281438827514648, -0.06993816047906876, -0.02704770304262638, -0.02756504714488983, -0.12370584160089493, 0.02572743222117424, 0.03760360926389694, -0.06022006645798683, 0.15690548717975616, 0.3344219923019409, -0.06010717526078224, 0.12961992621421814, 0.36970898509025574, -0.129371777176857, -0.1766718327999115, 0.13065895438194275, -0.20503029227256775, -0.0001022286742227152, 0.03214472904801369, -0.11192207783460617, 0.14861178398132324, 0.01133623719215393, 0.29815614223480225, -0.13465961813926697, -0.0566256120800972, 0.08096407353878021, -0.0610334612429142, 0.01854286715388298, -0.09227220714092255, -0.022910378873348236, -0.08693273365497589, -0.09837828576564789, -0.10095935314893723, 0.03533068671822548, -0.17493213713169098, 0.34946557879447937, -0.22680892050266266], "expander.0.1.weight": [0.5166189670562744, 0.38820698857307434, 0.37875840067863464, 0.3302873373031616, 0.36359885334968567, 0.3408196270465851, 0.5111242532730103, 0.37442517280578613, 0.4178095757961273, 0.336411714553833, 0.37990501523017883, 0.3842293322086334, 0.3239929676055908, 0.38900026679039, 0.323355108499527, 0.387829452753067, 0.25962206721305847, 0.4100548028945923, 0.4536663889884949, 0.28142985701560974, 0.48921483755111694, 0.3450201749801636, 0.4463224411010742, 0.5196858048439026, 0.3118622899055481, 0.32548245787620544, 0.43455421924591064, 0.4257933795452118, 0.4226283133029938, 0.37246954441070557, 0.3186887502670288, 0.48063546419143677, 0.40847453474998474, 0.3006894588470459, 0.4478173851966858, 0.37570834159851074, 0.4100543260574341, 0.4772849977016449, 0.30104395747184753, 0.4133879244327545, 0.41092169284820557, 0.421759694814682, 0.2928602397441864, 0.46618688106536865, 0.4172784984111786, 0.3453209400177002, 0.4088190197944641, 0.39135855436325073, 0.22441472113132477, 0.3933832347393036, 0.42860615253448486, 0.39872848987579346, 0.24425019323825836, 0.470199316740036, 0.3624156713485718, 0.38680705428123474, 0.33826524019241333, 0.5140790939331055, 0.4030466377735138, 0.3088320791721344, 0.31754830479621887, 0.46700552105903625, 0.34236547350883484, 0.5226202011108398], "expander.0.1.bias": [0.03649745136499405, -0.06878110021352768, -0.08660981804132462, -0.10912908613681793, -0.055957335978746414, 0.006049240007996559, -0.017555389553308487, -0.06862418353557587, -0.18948839604854584, -0.08222436904907227, 0.05313650146126747, 0.06002374365925789, -0.061706800013780594, -0.14549072086811066, -0.04482945799827576, -0.05676780268549919, -0.08476223051548004, 0.04970838129520416, -0.15809930860996246, -0.10532049089670181, -0.07118239998817444, -0.08610236644744873, -0.07334932684898376, -0.12630440294742584, -0.07690628618001938, -0.06618908047676086, -0.028995510190725327, -0.07141683250665665, 0.0427229069173336, -0.051293883472681046, -0.05972937121987343, 0.009350806474685669, -0.027418632060289383, -0.06073375418782234, -0.056228164583444595, -0.09194216132164001, -0.1661291867494583, -0.09616762399673462, -0.051693230867385864, -0.16509297490119934, -0.10921887308359146, 0.06817939877510071, -0.11621320992708206, -0.0982535183429718, -0.09230516105890274, -0.08676004409790039, -0.03738362342119217, -0.022668762132525444, -0.005953656509518623, -0.12093912810087204, 0.039782654494047165, 0.017553122714161873, -0.02028615027666092, -0.14531740546226501, -0.049109961837530136, 0.052187733352184296, -0.02151133120059967, -0.039906132966279984, 0.053693145513534546, 0.0339394137263298, 0.021696684882044792, -0.07966575771570206, -0.08548609167337418, -0.04389359429478645], "expander.1.0.weight": [[0.08158905059099197, -0.013595646247267723, 0.03992437943816185, -0.28521743416786194, 0.09838809818029404, 0.07787752896547318, -0.05714239925146103, 0.09921330213546753, 0.17224492132663727, -0.0487118624150753, -0.01964782178401947, -0.07456248253583908, 0.11163996160030365, 0.032877031713724136, -0.0312398299574852, 0.3497655987739563, 0.21437454223632812, 0.004945486783981323, 0.08002462238073349, -0.06656820327043533, -0.008795752190053463, -0.0001663201692281291, 0.08719220757484436, 0.1763484925031662, -0.03922773152589798, -0.010033095255494118, -0.1937720775604248, 0.18320828676223755, 0.14790718257427216, 0.016547715291380882, -0.016927840188145638, 0.08131154626607895, 0.12729251384735107, -0.2020694613456726, 0.31244364380836487, 0.1025625616312027, -0.17955753207206726, 0.08910118788480759, 0.004788692109286785, -0.19278135895729065, -0.05792625993490219, 0.012572478502988815, 0.031347014009952545, -0.019683074206113815, 0.08986551314592361, 0.20580212771892548, 0.13165873289108276, 0.4587394595146179, 0.014408341608941555, 0.038067493587732315, 0.10586804151535034, -0.0039114682003855705, -0.008115479722619057, 0.11914663016796112, -0.015357756987214088, 0.07850851863622665, -0.10110381990671158, 0.14047551155090332, 0.09984171390533447, 0.025411250069737434, 0.06733066588640213, 0.03216482698917389, -0.0858067125082016, 0.14675287902355194], [-0.21183031797409058, -0.004818189423531294, 0.11668160557746887, 0.12580852210521698, 0.1545058786869049, 0.04498369246721268, -0.12291206419467926, 0.03610428422689438, -0.10231851041316986, -0.01636919192969799, 0.24695786833763123, 0.048130158334970474, -0.041872479021549225, 0.115040123462677, -0.09223463386297226, -0.1515791118144989, -0.01779847964644432, -0.0398334264755249, -0.10247160494327545, -0.15295973420143127, -0.010697508230805397, 0.20829126238822937, -0.03698739781975746, -0.16402839124202728, 0.09645527601242065, 0.15575940907001495, 0.13025343418121338, -0.19771136343479156, 0.09599892795085907, 0.45472684502601624, -0.06643599271774292, -0.04153336584568024, -0.1282237470149994, 0.17122747004032135, 0.043813854455947876, -0.017567774280905724, 0.021219054237008095, 0.09761227667331696, -0.016413860023021698, -0.027851831167936325, 0.055951930582523346, 0.1749289631843567, 0.04428654536604881, 0.09745355695486069, -0.04751336947083473, -0.09825120866298676, 0.07058402895927429, 0.11095874756574631, 0.12131863087415695, -0.1154608428478241, 0.19603563845157623, -0.42040714621543884, 0.033856358379125595, 0.1705755591392517, -0.2637702524662018, 0.1887141764163971, 0.15106262266635895, -0.065433070063591, 0.13925622403621674, 0.04317636787891388, -0.04186810553073883, -0.021716279909014702, -0.12745897471904755, 0.08096211403608322], [-0.32857125997543335, -0.027561120688915253, -0.16486474871635437, 0.08502679318189621, -0.2994416058063507, 0.05830136686563492, 0.04406912997364998, 0.3159354031085968, 0.055209990590810776, -0.043154917657375336, -0.08147081732749939, 0.14449827373027802, -0.02636028826236725, 0.14326290786266327, 0.10040978342294693, 0.010466532781720161, 0.0731842964887619, -0.12376371771097183, -0.09341861307621002, 0.06752662360668182, -0.3312669098377228, -0.22391052544116974, 0.2574230134487152, -0.21441040933132172, 0.173666849732399, -0.010129475966095924, 0.06177382171154022, -0.1965809464454651, -0.19579282402992249, 0.2196180671453476, 0.011183035559952259, 0.13898447155952454, 0.1444014012813568, 0.014782147482037544, 0.12374666333198547, 0.2637677490711212, 0.18739290535449982, 0.09993965178728104, 0.1893184930086136, 0.08936644345521927, 0.12995906174182892, 0.1365995854139328, 0.043925609439611435, 0.11313734948635101, 0.06577563285827637, -0.11288978159427643, -0.032463736832141876, 0.18649330735206604, -0.2699331045150757, 0.1119459792971611, 0.030438223853707314, -0.0733792781829834, -0.13055211305618286, 0.15009568631649017, 0.22731325030326843, 0.14524981379508972, 0.09819398820400238, 0.04078406095504761, -0.09087277948856354, -0.03146572411060333, -0.10317321121692657, -0.00448533333837986, 0.08766984939575195, -0.08707518130540848], [-0.05992020666599274, -0.10051068663597107, 0.15505915880203247, -0.04612498730421066, -0.012379231862723827, 0.08217054605484009, -0.00437340559437871, -0.023675311356782913, 0.03692328929901123, -0.1441335827112198, -0.015578588470816612, -0.04630018025636673, -0.17322485148906708, -0.12505316734313965, 0.17867448925971985, -0.22620806097984314, -0.07893043011426926, -0.17806853353977203, 0.09563418477773666, 0.1708298772573471, -0.08694726973772049, 0.1396835297346115, 0.01284943986684084, -0.1131274551153183, -0.2830221652984619, -0.237679123878479, 0.011469806544482708, -0.12299362570047379, -0.13192249834537506, -0.0742722898721695, 0.008656593970954418, 0.14994138479232788, -0.009330742061138153, 0.1392926275730133, -0.13476505875587463, -0.04008360952138901, -0.021614665165543556, -0.2592579424381256, 0.1855396032333374, -0.12481844425201416, 0.13955551385879517, 0.04817312955856323, 0.1282384693622589, 0.30060482025146484, 0.24532385170459747, -0.13453169167041779, -0.21933221817016602, 0.0011797876795753837, 0.07094884663820267, 0.06541915982961655, -0.08080196380615234, 0.10003237426280975, 0.07905998826026917, 0.1353679895401001, 0.0523998849093914, -0.03379642963409424, -0.0005127453478053212, 0.20378240942955017, -0.016476210206747055, 0.1292206197977066, 0.043835416436195374, 0.13931551575660706, -0.17840391397476196, 0.06848137825727463], [0.1932174563407898, 0.11012163013219833, 0.21491779386997223, 0.04949024319648743, -0.08922046422958374, 0.15569275617599487, -0.18554598093032837, 0.10073649883270264, -0.31294432282447815, -0.04258446767926216, 0.011862891726195812, -0.07675856351852417, 0.051564719527959824, 0.06944532692432404, 0.11507806181907654, 0.016811257228255272, -0.026909196749329567, 0.1677360087633133, 0.011047671549022198, 0.11246837675571442, 0.24536074697971344, -0.0742529034614563, 0.296096533536911, 0.14898499846458435, 0.08700631558895111, 0.11608128249645233, -0.05423521250486374, 0.22030310332775116, 0.1032148078083992, 0.05748126283288002, -0.09712731093168259, -0.04859160631895065, 0.205860435962677, 0.06469520926475525, 0.10373709350824356, 0.12736012041568756, -0.0653652548789978, 0.1816505789756775, -0.013653261587023735, -0.07096981257200241, -0.001516401069238782, -0.01837710291147232, 0.06995425373315811, 0.26633840799331665, 0.028311816975474358, -0.06386033445596695, -0.34431156516075134, 0.036275360733270645, 0.15398207306861877, -0.004804439377039671, -0.1292543113231659, -0.01257720310240984, 0.07241923362016678, 0.18835008144378662, 0.0910339206457138, -0.22412700951099396, 0.044228363782167435, 0.10397336632013321, 0.2758413553237915, -0.05205080285668373, -0.06061728298664093, 0.21041101217269897, 0.03935158625245094, 0.013664578087627888], [0.040925901383161545, -0.34954649209976196, 0.09885048866271973, -0.08868305385112762, 0.11654035747051239, -0.09921649843454361, -0.15618513524532318, 0.16195917129516602, 0.012542094103991985, -0.5448261499404907, 0.10705254226922989, 0.0702245831489563, -0.06960215419530869, 0.170211523771286, 0.1274494230747223, -0.05219670757651329, 0.028084594756364822, 0.06303036957979202, -0.10735245048999786, -0.08438669890165329, 0.10580836981534958, 0.11608849465847015, 0.18853594362735748, 0.048307109624147415, -0.17623086273670197, 0.14208541810512543, 0.06290487945079803, 0.13069811463356018, 0.0048231566324830055, 0.05018133297562599, 0.125111386179924, 0.16102001070976257, 0.141830712556839, -0.1932252198457718, -0.009538192301988602, -0.017016667872667313, 0.03495631366968155, -0.14120957255363464, 0.03153904527425766, 0.02809571847319603, -0.10198549181222916, -0.5803926587104797, 0.13116510212421417, 0.2787691056728363, 0.12632866203784943, -0.06337849795818329, -0.15202873945236206, -0.008068617433309555, -0.050078004598617554, -0.019847849383950233, -0.19226780533790588, -0.02957206591963768, 0.06318872421979904, 0.22045695781707764, -0.17735949158668518, -0.27466505765914917, 0.0010796417482197285, -0.15603876113891602, -0.016573891043663025, 0.10845941305160522, 0.1008772999048233, 0.06867453455924988, 0.07278846204280853, -0.03261459246277809], [0.12128467112779617, -0.07305095344781876, 0.08788547664880753, 0.037212200462818146, 0.055936042219400406, 0.043743278831243515, 0.1816454380750656, -0.09142612665891647, 0.17632755637168884, -0.20057404041290283, 0.052326496690511703, 0.27325668931007385, -0.24120382964611053, -0.014309107325971127, 0.020012611523270607, 0.13227838277816772, 0.06343664973974228, 0.006892608944326639, -0.1775427609682083, 0.2007688581943512, 0.07534223794937134, -0.16682130098342896, -0.0420859232544899, -0.10742418467998505, 0.08783645182847977, -0.06848645210266113, -0.029860220849514008, -0.0342867411673069, -0.10276970267295837, -0.15323011577129364, -0.10429027676582336, 0.13076448440551758, -0.02677370421588421, 0.0038928815629333258, 0.0746728777885437, 0.08264333754777908, -0.11750197410583496, -0.05862269923090935, 0.09926759451627731, 0.06531105935573578, 0.05070064589381218, 0.001849449472501874, 0.27888140082359314, -0.10097763687372208, 0.1291620433330536, -0.048151127994060516, -0.09517092257738113, 0.036883026361465454, -0.011649684980511665, 0.003721181768923998, -0.22679011523723602, 0.008976216427981853, 0.21174968779087067, 0.02617727965116501, 0.22608274221420288, 0.1539827287197113, -0.1600414663553238, -0.11592020839452744, 0.14599137008190155, -0.04612655192613602, 0.1628199815750122, 0.12223038822412491, 0.06806595623493195, 0.16770027577877045], [0.009839753620326519, 0.07019073516130447, 0.14468291401863098, 0.09528146684169769, -0.11908342689275742, -0.031860269606113434, -0.007926772348582745, 0.10553031414747238, 0.11266794800758362, 0.07433446496725082, 0.0482574962079525, 0.1586262583732605, 0.02503225952386856, -0.07635561376810074, -0.092500701546669, -0.006356241647154093, 0.14535640180110931, 0.08185224235057831, -0.24651868641376495, 0.044627364724874496, -0.29992955923080444, -0.05178837850689888, -0.08739909529685974, -0.06302399188280106, 0.12075648456811905, -0.056466128677129745, 0.05645187944173813, 0.036221034824848175, 0.0048689148388803005, 0.07379854470491409, -0.010883861221373081, 0.014596741646528244, 0.12765419483184814, -0.00842763390392065, -0.25223642587661743, 0.1903744786977768, 0.20709016919136047, -0.01807064190506935, 0.051199592649936676, 0.3468945026397705, -0.2768484652042389, -0.38833972811698914, 0.14199711382389069, -0.31936386227607727, -0.10112922638654709, 0.028401395305991173, -0.09421540051698685, 0.1074887067079544, -0.08707553893327713, -0.035838548094034195, 0.0045789373107254505, 0.11573329567909241, 0.26858222484588623, 0.044782862067222595, -0.07858464866876602, 0.17118088901042938, 0.08539573848247528, -0.20151451230049133, 0.005698886699974537, -0.18493640422821045, 0.14397233724594116, -0.05265834555029869, 0.15100893378257751, -0.058276500552892685], [0.12573038041591644, 0.15240105986595154, 0.11104489117860794, -0.06660623848438263, 0.22110559046268463, -0.06787333637475967, -0.020273864269256592, 0.101026251912117, -0.11691433936357498, -0.041064098477363586, 0.05360981076955795, -0.061672624200582504, -0.10571026802062988, 0.11322328448295593, -0.02387639693915844, 0.3386067748069763, -0.11153782159090042, -0.13589754700660706, 0.10670913010835648, 0.03905100002884865, 0.11025947332382202, -0.13866525888442993, -0.009126434102654457, 0.15270406007766724, -0.1619197577238083, 0.06268534064292908, -0.007592009846121073, 0.05393937602639198, -0.1487818956375122, -0.034903060644865036, -0.13242265582084656, -0.08306334912776947, 0.02034914307296276, -0.19129930436611176, -0.1313537359237671, 0.002082027029246092, 0.1909344345331192, 0.07545842975378036, 0.07039433717727661, -0.13886229693889618, 0.11960075050592422, 0.009561704471707344, -0.11933410167694092, -0.07713726907968521, -0.12471680343151093, 0.038265738636255264, 0.13124866783618927, -0.08394429087638855, -0.015672650188207626, -0.06625422090291977, 0.06336389482021332, 0.12882061302661896, 0.10069502890110016, -0.12770810723304749, 0.15683159232139587, 0.06245926767587662, -0.5814062356948853, 0.24992597103118896, 0.02875221148133278, 0.03355557844042778, 0.09888342022895813, 0.2204618602991104, -0.02998712658882141, 0.06843225657939911], [0.12041961401700974, -0.09377530217170715, 0.22689208388328552, 0.03459327295422554, 0.17308899760246277, -0.05100551247596741, 0.05737930163741112, -0.017694002017378807, 0.16084738075733185, -0.06853681057691574, -0.07731947302818298, 0.13887374103069305, -0.1833212971687317, 0.053475502878427505, 0.030055750161409378, -0.09267107397317886, 0.026570430025458336, 0.0645730048418045, -0.19821864366531372, -0.05124600604176521, 0.057667650282382965, 0.10229876637458801, -0.30520322918891907, 0.15497082471847534, -0.043668996542692184, 0.09330952167510986, 0.10094741731882095, 0.006554529536515474, -0.08731761574745178, 0.036310382187366486, -0.10258594155311584, -0.1526220291852951, 0.018197715282440186, -0.053112465888261795, -0.19029881060123444, 0.033253420144319534, -0.043227050453424454, -0.12292355298995972, 0.012025352567434311, 0.11233785003423691, -0.10596086084842682, -0.013077901676297188, 0.13985568284988403, 0.18431895971298218, 0.10859198868274689, 0.01590018905699253, -0.17191572487354279, 0.08950847387313843, 0.06434447318315506, -0.014393671415746212, -0.07804382592439651, -0.21318528056144714, 0.1925092488527298, 0.10112346708774567, -0.00149950897321105, 0.04613456502556801, 0.03628094866871834, -0.2698501944541931, -0.0792122408747673, 0.06387221068143845, 0.10608640313148499, 0.2180904895067215, 0.16798792779445648, -0.023843303322792053], [0.05378154292702675, 0.13474172353744507, 0.0630170926451683, -0.09717338532209396, 0.18618758022785187, -0.15314535796642303, 0.17508962750434875, 0.06274980306625366, 0.28161683678627014, 0.11873820424079895, 0.03275713324546814, -0.11943920701742172, 0.13090652227401733, 0.12226038426160812, -0.010611808858811855, -0.022510608658194542, -0.030940715223550797, 0.15471872687339783, 0.018434744328260422, 0.046980489045381546, 0.1421804577112198, 0.0011820436920970678, -0.3166024088859558, 0.025103755295276642, 0.006248809397220612, -0.29590147733688354, 0.040092188864946365, 0.2490868866443634, 0.004439998883754015, -0.2158990204334259, 0.0011151586659252644, 0.09052174538373947, -0.09600959718227386, -0.19306664168834686, -0.3024140000343323, -0.02207287773489952, 0.10652356594800949, -0.19190247356891632, 0.05337608605623245, -0.04185927286744118, 0.180743008852005, 0.002358927158638835, 0.15967266261577606, -0.17124515771865845, 0.1762906312942505, 0.04985806718468666, 0.07729895412921906, 0.09305230528116226, -0.07258482277393341, 0.10985282808542252, 0.028033273294568062, -0.12325799465179443, 0.23044054210186005, -0.12088891863822937, 0.0865599513053894, 0.06797973811626434, 0.19936594367027283, -0.2711421251296997, -0.0989883616566658, -0.07648231089115143, -0.01748671382665634, 0.09943077713251114, -0.022599060088396072, 0.06718143820762634], [-0.08293809741735458, 0.0992477685213089, 0.0765438973903656, -0.15556292235851288, -0.1990976184606552, 0.004227255936712027, 0.09645865857601166, 0.009960582479834557, 0.024457808583974838, 0.06076866388320923, 0.06229753792285919, 0.04008111730217934, 0.06498061865568161, 0.06419723480939865, -0.05291331931948662, -0.027044326066970825, -0.003489783965051174, -0.12713830173015594, -0.18551664054393768, 0.10926498472690582, 0.07437397539615631, 0.1493363082408905, -0.0001895927416626364, 0.1444692760705948, 0.0019534616731107235, 0.04166613519191742, -0.045228682458400726, 0.14977937936782837, -0.11999507248401642, -0.04920213297009468, 0.005117171909660101, 0.07144014537334442, -0.11207102239131927, 0.06020079925656319, -0.20763584971427917, -0.05275830999016762, 0.0019526839023455977, -0.020465658977627754, 0.12011964619159698, 0.20832067728042603, 0.09453317523002625, 0.418384313583374, 0.005064534489065409, 0.04208270460367203, 0.11192401498556137, 0.0643322765827179, -0.0478794239461422, 0.08425027132034302, -0.08705426007509232, -0.24785387516021729, 0.18867917358875275, 0.18571384251117706, 0.06679865717887878, 0.03053283505141735, -0.2572072148323059, 0.25684067606925964, -0.04547576978802681, -0.031329602003097534, 0.1768324226140976, -0.04264160618185997, -0.26661571860313416, -0.16583676636219025, -0.141191303730011, 0.10618283599615097], [-0.04398059844970703, -0.22768406569957733, 0.06900535523891449, -0.014370152726769447, 0.2357977330684662, -0.09034749865531921, -0.05435105040669441, 0.06864138692617416, 0.05787063017487526, 0.05360245704650879, -0.25063565373420715, -0.037329889833927155, 0.1071610376238823, -0.025991175323724747, 0.05231788009405136, 0.09758254885673523, -0.009918760508298874, 0.07740166038274765, 0.2912079393863678, -0.0007363875047303736, 0.03897620737552643, 0.02017766237258911, -0.20369930565357208, 0.25532039999961853, -0.07467376440763474, -0.09710913151502609, 0.08660586178302765, -0.10590268671512604, -0.011885426007211208, 0.008239107206463814, -0.10774935781955719, -0.03675077483057976, 0.09146036207675934, -0.25798511505126953, -0.038222428411245346, -0.07607405632734299, 0.1288408488035202, -0.020083492621779442, 0.022859491407871246, 0.036236561834812164, -0.0842706486582756, 0.07174312323331833, 0.020196611061692238, -0.25076431035995483, 0.013396373949944973, 0.16999031603336334, -0.10963190346956253, 0.15811584889888763, 0.2695170044898987, 0.28007814288139343, -0.07086795568466187, 0.12612004578113556, 0.14954598248004913, 0.045796241611242294, 0.2434798628091812, -0.013517777435481548, 0.050638072192668915, -0.2315109372138977, -0.028669770807027817, -0.09936179220676422, 0.1473509818315506, -0.012360830791294575, 0.15579210221767426, -0.07220269739627838], [0.15822672843933105, 0.1394045650959015, -0.15175704658031464, 0.050539709627628326, 0.013134527020156384, -0.045333389192819595, -0.14674359560012817, 0.16855180263519287, 0.13740259408950806, -0.12721167504787445, -0.049079205840826035, -0.1409807652235031, -0.018544606864452362, -0.16521799564361572, -0.02779504656791687, 0.07880888134241104, 0.01732930913567543, 0.060041338205337524, -0.33372071385383606, 0.22767320275306702, 0.11696216464042664, 0.003726433729752898, 0.11761830002069473, 0.26529550552368164, -0.047096215188503265, 0.031096892431378365, -0.005107352510094643, 0.04537602886557579, 0.0842779278755188, -0.08639741688966751, 0.011710826307535172, 0.14363837242126465, 0.2511422336101532, 0.2629227042198181, 0.03990977630019188, 0.14271408319473267, 0.005520428065210581, 0.0315895713865757, -0.1268351525068283, -0.07129809260368347, 0.0037771123461425304, 0.03308179974555969, 0.06478216499090195, -0.35485267639160156, 0.15099100768566132, 0.05470658466219902, 0.17001575231552124, -0.1746915578842163, 0.004546676762402058, 0.14235293865203857, 0.1594788134098053, 0.08134500682353973, -0.01760086603462696, 0.08439403772354126, 0.12141764163970947, -0.14995279908180237, 0.07596532255411148, -0.018214600160717964, -0.06395094841718674, 0.00294237001799047, 0.17023815214633942, 0.07636134326457977, 0.048383068293333054, -0.10961000621318817], [0.05267303064465523, -0.0025936972815543413, -0.014504527673125267, -0.12247847765684128, -0.01594003662467003, -0.13534963130950928, 0.1080537885427475, 0.14435571432113647, 0.54819256067276, 0.08294546604156494, 0.03958712890744209, 0.0489947609603405, -0.026137253269553185, -0.00937291793525219, 0.1318741887807846, -0.046324461698532104, 0.22008700668811798, 0.045750949531793594, -0.1163102388381958, 0.10192343592643738, 0.12167929857969284, 0.06123881787061691, 0.045208219438791275, -0.19666580855846405, 0.05231379717588425, 0.07113128900527954, -0.13114942610263824, -0.0036851849872618914, 0.15870609879493713, 0.109354667365551, -0.11902991682291031, -0.1051289439201355, 0.13476987183094025, 0.11130394786596298, -0.0930328220129013, 0.12445122003555298, -0.06011407449841499, 0.13248257339000702, -0.06691024452447891, -0.02116129919886589, 0.05802808701992035, -0.04006735980510712, 0.25308001041412354, 0.0775180235505104, 0.003482994856312871, -0.18491074442863464, -0.1132727712392807, 0.42318499088287354, 0.20349933207035065, 0.30289211869239807, -0.08685825765132904, 0.06112796813249588, 0.043268922716379166, -0.013390538282692432, 0.04229123890399933, -0.0037409658543765545, 0.10000618547201157, 0.011893361806869507, 0.04462067037820816, -0.09253446757793427, 0.032770831137895584, -0.08475673198699951, 0.09821957349777222, -0.026348771527409554], [-0.3372119963169098, -0.22367163002490997, 0.1517430692911148, -0.014829657971858978, -0.1321130245923996, 0.0881352424621582, -0.05361992493271828, 0.12118048965930939, 0.07757358253002167, -0.02775614522397518, 0.050972286611795425, 0.08936931192874908, -0.11481083184480667, -0.0029797342140227556, -0.06640631705522537, -0.004328772891312838, 0.0525687076151371, -0.03052481822669506, -0.06682857125997543, -0.009770892560482025, 0.12652789056301117, -0.05779172107577324, 0.04954702779650688, 0.09206979721784592, 0.12724022567272186, 0.08255711942911148, 0.10730922222137451, -0.12357191741466522, 0.013312844559550285, 0.06601257622241974, 0.004285596311092377, -0.0739804059267044, 0.18688078224658966, 0.09810927510261536, 0.01949140802025795, 0.04626816138625145, -0.12534362077713013, -0.39375531673431396, 0.006170975510030985, 0.04748644679784775, -0.05388989672064781, 0.18748076260089874, 0.07116919755935669, 0.28435757756233215, 0.03994607925415039, -0.06415441632270813, -0.14848794043064117, 0.06075714901089668, -0.08053477108478546, 0.06341204792261124, 0.06281626969575882, -0.24602074921131134, -0.2787325382232666, 0.1122492179274559, -0.08025062829256058, 0.06454132497310638, 0.029569847509264946, 0.03513043373823166, 0.07249157130718231, -0.02536521479487419, 0.17843718826770782, 0.28288716077804565, 0.09910611808300018, -0.04260034114122391], [0.04328296333551407, 0.24901428818702698, 0.0844428762793541, 0.2207118421792984, -0.07954809814691544, 0.08505955338478088, -0.10460710525512695, 0.15921500325202942, -0.02756938897073269, 0.12928085029125214, 0.0009781415574252605, -0.2572215497493744, -0.035691358149051666, -0.00727926567196846, 0.10295403003692627, 0.006016876082867384, 0.22086091339588165, 0.062380243092775345, -0.16714759171009064, 0.16834932565689087, 0.25225362181663513, 0.0360662117600441, 0.14741170406341553, 0.14180348813533783, -0.05349664390087128, -0.11444497108459473, 0.10658307373523712, 0.0985407754778862, -0.0003547758096829057, 0.11436522006988525, 0.02771296352148056, -0.11125849187374115, 0.16286875307559967, 0.13706251978874207, 0.21877089142799377, 0.25289615988731384, 0.09058079868555069, 0.08538155257701874, -0.21075110137462616, 0.29324871301651, -0.1354144662618637, -0.1675187200307846, 0.04287143424153328, -0.16205309331417084, -0.10900897532701492, 0.05281607061624527, 0.04776701331138611, 0.03849416226148605, 0.05587718263268471, 0.05764548107981682, -0.021228758618235588, -0.09634209424257278, 0.03663178160786629, 0.13611647486686707, 0.10035338997840881, 0.07402787357568741, -0.012349835596978664, -0.05013443902134895, 0.08668456226587296, 0.06247236207127571, 0.0767863541841507, 0.08803839236497879, 0.17175519466400146, 0.2576160728931427], [0.2625940442085266, -0.035593897104263306, 0.015307746827602386, 0.2296162247657776, 0.08663143962621689, -0.030102171003818512, 0.3069338798522949, -0.0844162330031395, -0.16703611612319946, -0.1555238664150238, -0.308974951505661, 0.08798814564943314, -0.08393280953168869, -0.09424058347940445, -0.00722343847155571, -0.0730057880282402, -0.07380641251802444, 0.15850605070590973, -0.10335183888673782, 0.17517660558223724, 0.23896268010139465, -0.27673450112342834, 0.08163150399923325, 0.13982288539409637, 0.04398196563124657, 0.042409345507621765, -0.10711298137903214, 0.10904337465763092, -0.18425492942333221, 0.03869647532701492, 0.2643606662750244, -0.07705119997262955, -0.03692040964961052, 0.17544683814048767, 0.18877993524074554, -0.12020774930715561, -0.32787978649139404, 0.025096619501709938, -0.057722657918930054, -0.24397513270378113, 0.1546243578195572, 0.028275547549128532, 0.11120836436748505, -0.028976960107684135, -0.07302216440439224, 0.019678156822919846, 0.16682812571525574, -0.13319557905197144, -0.033520277589559555, -0.1402716338634491, 0.06398151814937592, 0.11674491316080093, 0.006525074131786823, -0.1754433959722519, 0.11860404908657074, 0.06580377370119095, 0.09664196521043777, 0.08959348499774933, 0.11938012391328812, 0.11054985225200653, 0.10814905166625977, 0.15383313596248627, -0.07837655395269394, 0.17362388968467712], [-0.15598773956298828, -0.01132457610219717, -0.07765620201826096, 0.24894171953201294, -0.31668123602867126, 0.032443590462207794, 0.13305746018886566, 0.15756331384181976, 0.214316263794899, 0.13942308723926544, 0.23862621188163757, 0.14869026839733124, -0.006499237846583128, -0.19847236573696136, -0.015085221268236637, 0.1626051515340805, 0.03931131586432457, -0.036800336092710495, 0.07101652026176453, 0.24609056115150452, -0.23012734949588776, 0.04498869925737381, -0.06165148690342903, -0.3325001001358032, 0.21893589198589325, -0.020532310009002686, -0.03497379645705223, -0.10779548436403275, 0.0033438613172620535, 0.17990918457508087, 0.11684085428714752, 0.06223078444600105, 0.06367683410644531, 0.17382033169269562, -0.23194700479507446, 0.20601807534694672, 0.19572190940380096, 0.1080651730298996, 0.13559885323047638, 0.08944753557443619, -0.025871912017464638, -0.19398179650306702, 0.123101145029068, -0.006053488235920668, -0.17527374625205994, -0.5767359137535095, 0.002471309620887041, 0.0032061717938631773, -0.05093400552868843, -0.0055148848332464695, -0.017926350235939026, -0.04239606484770775, 0.019643433392047882, -0.10574010014533997, -0.020914841443300247, 0.20258939266204834, 0.11858528852462769, 0.1521807461977005, 0.004194476176053286, -0.03666340559720993, -0.06282683461904526, -0.07675894349813461, 0.21627038717269897, -0.32321229577064514], [0.1270218938589096, 0.14972440898418427, 0.011483706533908844, 0.06804699450731277, 0.12487635761499405, -0.053912073373794556, 0.06265144050121307, 0.21167810261249542, -0.1816956102848053, 0.03506026789546013, -0.018403496593236923, -0.03984463959932327, 0.02326233871281147, 0.10596656054258347, 0.1399339735507965, -0.047384705394506454, -0.24904702603816986, 0.10505040735006332, -0.03829178586602211, 0.06764299422502518, -0.07667610049247742, 0.032623548060655594, 0.053762007504701614, -0.11130321025848389, 0.06882540881633759, 0.13453643023967743, 0.01691552810370922, 0.09313788264989853, 0.16992110013961792, 0.04945787414908409, 0.07094583660364151, 0.06967651844024658, -0.17197589576244354, 0.12254296243190765, 0.10579552501440048, -0.012630918994545937, 0.0997050479054451, 0.02842041477560997, -0.12221129238605499, -0.14781607687473297, 0.12902602553367615, 0.1728612631559372, -0.03127523139119148, 0.09107281267642975, 0.04925913363695145, 0.2367902249097824, -0.06908027082681656, 0.06689354032278061, 0.1926729828119278, 0.5297874212265015, -0.07669287174940109, 0.0047126272693276405, -0.1336088329553604, -0.03655271604657173, -0.017150890082120895, -0.248880535364151, -0.05235561728477478, 0.044133640825748444, 0.005883270408958197, 0.16235290467739105, 0.06789464503526688, 0.06868594139814377, -0.02814166620373726, 0.011855503544211388], [-0.024071931838989258, 0.05709495022892952, 0.10227615386247635, 0.3368776738643646, 0.25454822182655334, -0.1209266260266304, -0.06490586698055267, 0.26386043429374695, 0.04973730444908142, 0.04751894995570183, -0.019027309492230415, -0.051677390933036804, 0.13603706657886505, 0.1733754426240921, -0.009090824984014034, -0.2600761950016022, 0.13105471432209015, 0.14017343521118164, -0.012937088496983051, 0.21839798986911774, -0.006626639049500227, 0.1043044850230217, -0.024093789979815483, -0.18711799383163452, 0.2590842843055725, 0.22605343163013458, 0.09732292592525482, 0.10489147156476974, -0.17978538572788239, 0.05831557884812355, 0.17705002427101135, -0.21947838366031647, -0.07407820969820023, 0.2623874843120575, -0.13568250834941864, 0.007129262667149305, 0.15637028217315674, 0.0844130665063858, -0.02068355493247509, 0.05307425931096077, -0.21089623868465424, -0.04660198837518692, 0.22396641969680786, 0.1693333238363266, -0.13530750572681427, 0.049296293407678604, 0.1848311424255371, 0.0181716475635767, -0.015424013137817383, 0.13173988461494446, -0.037231337279081345, -0.013262012042105198, 0.13520973920822144, -0.2981331944465637, -0.1238638162612915, -0.032984208315610886, 0.20483717322349548, 0.13737741112709045, -0.0788903683423996, -0.08824249356985092, -0.2249148190021515, -0.10035491734743118, 0.1624913215637207, -0.010725496336817741], [-0.03893318399786949, -0.07534361630678177, 0.15950194001197815, -0.015248785726726055, -0.13188433647155762, 0.15646681189537048, -0.2079704999923706, -0.04398045688867569, -0.03583163022994995, 0.02418726310133934, -0.039735183119773865, 0.050091154873371124, -0.25141218304634094, -0.045859869569540024, 0.17344066500663757, -0.20594333112239838, 0.07089501619338989, -0.29986098408699036, 0.4471370279788971, 0.13433372974395752, 0.22619077563285828, 0.054133981466293335, -0.0837179496884346, -0.01725299470126629, -0.1321081519126892, -0.4273095428943634, -0.0033425127621740103, -0.048148032277822495, -0.07497859001159668, 0.17837652564048767, -0.05831148847937584, 0.05743224173784256, 0.06863289326429367, 0.022319069132208824, 0.14608152210712433, 0.06817931681871414, 0.1163233146071434, -0.1720082014799118, 0.14909014105796814, 0.10085845738649368, 0.25034570693969727, -0.08425094187259674, 0.009709049947559834, -0.026005687192082405, 0.17123253643512726, -0.05064292997121811, 0.010499557480216026, -0.0835346132516861, 0.10860680788755417, -0.04471607878804207, -0.027631374076008797, 0.08493758738040924, 6.695925549138337e-05, 0.04551703855395317, 0.026763685047626495, -0.08442933857440948, -0.5077604651451111, 0.09418541193008423, 0.06714384257793427, -0.11662886291742325, 0.01574319787323475, 0.023632273077964783, 0.024127712473273277, -0.03737775236368179], [-0.49832630157470703, -0.12175538390874863, -0.3177456557750702, 0.05109666660428047, -0.12575329840183258, 0.15870532393455505, -0.16554653644561768, -0.2350890338420868, -0.057786259800195694, -0.31388112902641296, 0.12129845470190048, 0.0602993443608284, 0.1426360011100769, -0.08592339605093002, 0.18661753833293915, 0.163206085562706, 0.03161850944161415, 0.09525662660598755, 0.155927836894989, 0.1680450588464737, -0.02973504178225994, -0.09799456596374512, 0.25001174211502075, 0.33254143595695496, 0.11730816960334778, -0.11560806632041931, -0.17623423039913177, 0.18479539453983307, 0.028992487117648125, -0.13994556665420532, 0.05762209743261337, -0.052569009363651276, 0.0582466684281826, 0.07750026881694794, -0.01924447901546955, 0.07686381787061691, 0.03428690880537033, 0.1693553924560547, 0.19822800159454346, 0.018969876691699028, 0.05290716886520386, -0.0021575922146439552, 0.11842693388462067, 0.26709896326065063, 0.21164588630199432, 0.2607075273990631, -0.019186148419976234, 0.019207840785384178, -0.10270664095878601, -0.043465375900268555, 0.033363789319992065, 0.11401873081922531, -0.27800875902175903, -0.2594914138317108, 0.13208623230457306, 0.012406363151967525, -0.06065601482987404, -0.08111827820539474, 0.05333179980516434, 0.03250449150800705, -0.2626563012599945, -0.24717457592487335, -0.1570436954498291, -0.07443885505199432], [-0.10583227872848511, -0.13529327511787415, 0.059709012508392334, 0.28397706151008606, -0.06597749888896942, 0.04141516983509064, -0.15798962116241455, -0.027744313701987267, 0.13004574179649353, 0.13680380582809448, -0.041284531354904175, 0.01444762572646141, 0.02453695423901081, -0.06719294935464859, 0.3129630982875824, -0.3686904013156891, 0.1073702946305275, -0.0799417719244957, -0.17754484713077545, 0.018644651398062706, -0.1483229398727417, 0.17807736992835999, -0.018485089763998985, -0.08180208504199982, 0.1521693915128708, 0.08876314014196396, 0.2780110239982605, -0.22932542860507965, 0.01032575499266386, 0.11583416163921356, -0.2122432440519333, 0.034417860209941864, 0.0671624019742012, 0.20653517544269562, 0.00011379639181541279, -0.05455966666340828, 0.20579472184181213, -0.004553005564957857, 0.06306556612253189, 0.2825358808040619, -0.08430709689855576, -0.12297921627759933, 0.0943073108792305, 0.0819307491183281, 0.0630134716629982, -0.3296547830104828, -0.23673225939273834, 0.16973310708999634, 0.10665686428546906, 0.06451714783906937, 0.06344465911388397, 0.037768516689538956, 0.10977085679769516, -0.12608131766319275, -0.03821710869669914, -0.04152936488389969, 0.14078369736671448, -0.17263184487819672, 0.11492109298706055, -0.1892460733652115, 0.018308350816369057, -0.041572876274585724, 0.0445823110640049, 0.00976106058806181], [-0.27863213419914246, -0.07397474348545074, -0.11964654922485352, 0.13480128347873688, 0.10660607367753983, 0.05553029105067253, -0.2103816270828247, -0.04851202666759491, 0.04134310781955719, 0.18013493716716766, -0.07578179985284805, 0.11511389166116714, 0.10343708097934723, -0.0015552445547655225, 0.11962495744228363, 0.07523481547832489, -0.11408887803554535, 0.06407252699136734, 0.35443153977394104, 0.05605428293347359, -0.24944396317005157, 0.03030688688158989, 0.017439883202314377, 0.14032384753227234, -0.008121331222355366, -0.2291673719882965, 0.0770261362195015, 0.029440060257911682, -0.2888505756855011, 0.4027044475078583, 0.11610885709524155, 0.027453670278191566, -0.0034588610287755728, 0.06383083015680313, 0.09046424180269241, -0.16110339760780334, 0.08841796964406967, -0.10718031972646713, 0.014112024568021297, 0.2188672423362732, 0.10597806423902512, -0.03330117091536522, -0.16171826422214508, -0.04078282415866852, 0.0555054172873497, 0.18465664982795715, -0.20079787075519562, 0.015764426440000534, 0.1274818331003189, 0.03804690018296242, 0.12136635184288025, -0.15052133798599243, 0.08671265840530396, -0.1334598809480667, -0.08318333327770233, -0.15676267445087433, 0.08385100215673447, -0.04002920910716057, -0.017493609338998795, -0.07819714397192001, -0.09872467815876007, 0.049233924597501755, 0.05659931153059006, 0.12616123259067535], [0.11654870957136154, -0.04515279456973076, -0.02771620824933052, 0.17557284235954285, 0.11395134776830673, 0.0071362038142979145, 0.12360412627458572, 0.030217304825782776, 0.0941961258649826, 0.16654829680919647, -0.04094250127673149, -0.2357865571975708, 0.0854719877243042, 0.12766225636005402, -0.004692059941589832, 0.021024730056524277, 0.13511939346790314, 0.03202878683805466, 0.07070738077163696, -0.0022306726314127445, -0.06500658392906189, -0.0696447491645813, 0.04993221536278725, 0.13173708319664001, 0.0650777816772461, -0.10010985285043716, 0.13087476789951324, -0.14199857413768768, -0.03529271110892296, 0.07638416439294815, 0.07182937860488892, -0.0039964099414646626, 0.05837427079677582, -0.25203436613082886, -0.1056327149271965, 0.14287924766540527, 0.11256363987922668, -0.13867230713367462, -0.005853238981217146, 0.0030179591849446297, -0.07512391358613968, 0.014738509431481361, -0.11356407403945923, -0.27437344193458557, -0.11984968930482864, 0.002805581083521247, -0.13071902096271515, 0.08638518303632736, 0.07746241241693497, 0.04667624458670616, -0.05804963409900665, 0.19969595968723297, 0.03306256979703903, 0.15010489523410797, 0.1799258440732956, 0.012783930636942387, 0.027312900871038437, 0.027248278260231018, -0.22810043394565582, -0.08299489319324493, 0.046729911118745804, 0.012157035060226917, 0.14996500313282013, 0.2043043076992035], [0.11097963154315948, -0.022000553086400032, 0.22034120559692383, -0.12259956449270248, -0.002105078659951687, -0.09988003969192505, -0.0711350291967392, 0.03697890043258667, 0.09050128608942032, -0.017000047490000725, 0.024921368807554245, 0.2481253445148468, 0.028160763904452324, 0.04764734208583832, 0.04939435049891472, 0.058516111224889755, -0.09753395617008209, 0.06454114615917206, 0.02524683251976967, 0.09697064012289047, -0.0316736213862896, 0.08884474635124207, -0.04228111356496811, -0.08554433286190033, 0.03937012329697609, -0.0865062028169632, -0.004439488984644413, 0.055710140615701675, -0.11925863474607468, -0.016225170344114304, 0.2128215879201889, 0.056661542505025864, -0.029723620042204857, 0.08731701970100403, 0.004267302341759205, 0.21531976759433746, 0.18883393704891205, 0.08210232108831406, -0.18928633630275726, -0.016791019588708878, 0.05386236310005188, 0.11238110810518265, -0.03736785799264908, 0.08323781937360764, 0.1863912045955658, 0.18687421083450317, 0.15926554799079895, -0.431619256734848, -0.09222778677940369, 0.38285544514656067, 0.044483035802841187, 0.15322721004486084, -0.04062439501285553, 0.07997886091470718, -0.028394924476742744, -0.1300165355205536, 0.016818951815366745, -0.029022682458162308, 0.003072320716455579, 0.09486844390630722, 0.10139098018407822, -0.02781871147453785, 0.23684176802635193, -0.1701255440711975], [-0.0232410691678524, -0.01687641069293022, -0.01858278177678585, 0.1277075856924057, 0.16151872277259827, -0.2775556147098541, -0.04755168408155441, 0.14555512368679047, 0.0952344462275505, -0.06387205421924591, 0.12407803535461426, -0.009527605958282948, 0.025937512516975403, 0.1379600465297699, -0.25148805975914, 0.17735405266284943, -0.056132249534130096, 0.029105529189109802, 0.15663309395313263, 0.10496366024017334, -0.21153323352336884, -0.04958672076463699, -0.001679420005530119, -0.23655955493450165, -0.12189222127199173, 0.0316304974257946, 0.2716332674026489, 0.048743680119514465, 0.046757813543081284, 0.2039620578289032, 0.050024982541799545, -0.17396824061870575, 0.08433344215154648, 0.17627646028995514, -0.23784492909908295, -0.1555718332529068, 0.3052593469619751, -0.00870560109615326, 0.10692063719034195, 0.09623337537050247, 0.053379617631435394, 0.09837039560079575, 0.13295415043830872, 0.009288545697927475, 0.14605633914470673, 0.0390639528632164, 0.058258894830942154, 0.006811255123466253, -0.05400514975190163, -0.10238495469093323, 0.04496283456683159, -0.0376431904733181, -0.055436793714761734, 0.0993223711848259, -0.0777779147028923, 0.21561190485954285, 0.07509133219718933, -0.22434715926647186, -0.03245154768228531, -0.022436028346419334, 0.08926580101251602, -0.14742644131183624, -0.05838404595851898, -0.032947197556495667], [-0.15471701323986053, -0.20893575251102448, -0.24141737818717957, -0.19713622331619263, 0.11882094293832779, -0.12813210487365723, -0.06771174818277359, -0.11101031303405762, 0.12351742386817932, -0.03700660914182663, -0.08866634219884872, 0.21940504014492035, 0.1795186698436737, 0.12036364525556564, 0.15309782326221466, 0.047284938395023346, -0.07130216807126999, 0.025465425103902817, 0.005512224044650793, -0.015283609740436077, 0.09966722130775452, -0.04849667847156525, 0.09961792826652527, -0.23752707242965698, 0.09803188592195511, -0.004779611248522997, 0.04392171651124954, -0.028156735002994537, 0.04248844087123871, -0.10979537665843964, -0.05801686644554138, 0.10417565703392029, -0.09553257375955582, 0.015267596580088139, 0.15170948207378387, -0.2909473478794098, -0.15382181107997894, 0.12717628479003906, 0.10983419418334961, -0.04472833871841431, 0.1396235227584839, 0.17189787328243256, 0.006425134371966124, 0.08391913771629333, 0.07233832031488419, 0.009928669780492783, 0.013358193449676037, -0.05118017643690109, 0.21091076731681824, -0.008306850679218769, 0.18704459071159363, 0.03738746792078018, -0.08131372928619385,